{"learner":{"attributes":{"scikit_learn":"{\"_estimator_type\": \"classifier\"}"},"feature_names":["HighChol","BMI","Sex","HeartDiseaseorAttack","PhysHlth"],"feature_types":["float","float","float","float","float"],"gradient_booster":{"model":{"gbtree_model_param":{"num_parallel_tree":"1","num_trees":"10"},"iteration_indptr":[0,1,2,3,4,5,6,7,8,9,10],"tree_info":[0,0,0,0,0,0,0,0,0,0],"trees":[{"base_weights":[-2.0904908E-8,-6.071734E-1,5.481616E-1,-1.0715067E0,-8.83527E-3,2.4100164E-2,9.478759E-1,-1.1693912E0,3.2930577E-1,-1.3580334E-1,1.1268057E0,-1.4791478E-1,7.40066E-1,7.32081E-1,1.253001E0,-1.2620411E0,-5.824571E-1,-2.0005596E-3,7.0186484E-1,-4.6865404E-1,1.5101819E-1,9.4139403E-1,1.3337667E0,-2.795362E-1,4.2435333E-1,5.060799E-1,9.080875E-1,5.1360285E-1,1.0245023E0,9.991812E-1,1.3947204E0,-1.4331844E0,-9.895072E-1,-9.11099E-1,-2.7346516E-1,-1.7342363E-1,4.4701907E-1,5.8700764E-1,2.7146026E-1,-5.866918E-1,4.1376907E-2,-3.832246E-2,5.898023E-1,7.570454E-1,1.1278816E0,1.3423834E0,6.633074E-2,-7.1793866E-1,-1.4300852E-1,9.7860195E-2,6.237176E-1,-3.6546928E-1,5.420085E-1,6.262501E-1,9.934594E-1,4.291926E-1,9.288112E-1,9.345535E-1,1.4869843E0,8.62885E-1,1.3153296E0,1.3086864E0,4.768217E-1,-4.6109933E-1,-3.7584928E-1,-3.1034425E-1,-2.157618E-1,-3.557706E-1,-2.229359E-1,-1.6213673E-1,-3.611504E-2,-1.9662061E-1,-5.9635006E-4,2.478146E-2,2.2442572E-1,2.210389E-1,1.4792223E-1,-2.0144182E-1,-1.5213065E-1,-2.7523978E-2,9.47676E-2,-3.9729945E-2,6.798554E-2,1.1939757E-1,2.788783E-1,2.8117687E-1,1.5812069E-1,3.055279E-1,4.3823776E-1,3.8590366E-1,5.1667887E-1,-2.4924064E-1,-1.2976736E-1,-9.138552E-2,1.1883674E-2,-1.7333016E-2,1.2533127E-1,1.6243438E-1,2.594036E-1,-1.8802933E-1,7.45465E-2,1.4758235E-1,2.248051E-1,2.1007289E-1,1.4227174E-1,2.598127E-1,3.4584418E-1,9.766355E-2,1.8567848E-1,2.5547406E-1,3.2218808E-1,2.4415055E-1,3.1989613E-1,4.4895157E-1,1.9955668E-1,1.9051912E-1,3.2829747E-1,3.5462552E-1,4.3576622E-1,3.4819722E-1,4.3260753E-1],"categories":[],"categories_nodes":[],"categories_segments":[],"categories_sizes":[],"default_left":[0,0,0,0,0,0,0,0,0,0,0,0,0,0,0,0,0,0,0,0,0,0,0,0,0,0,0,0,0,0,0,0,0,0,0,0,0,0,0,0,0,0,0,0,0,0,0,0,0,0,0,0,0,0,0,0,0,0,0,0,0,0,0,0,0,0,0,0,0,0,0,0,0,0,0,0,0,0,0,0,0,0,0,0,0,0,0,0,0,0,0,0,0,0,0,0,0,0,0,0,0,0,0,0,0,0,0,0,0,0,0,0,0,0,0,0,0,0,0,0,0],"id":0,"left_children":[1,3,5,7,9,11,13,15,17,19,21,23,25,27,29,31,33,35,37,39,41,43,45,47,49,51,53,55,57,59,61,63,65,67,69,71,73,75,-1,77,79,81,83,85,87,89,-1,91,93,95,97,99,101,103,105,107,109,111,113,115,117,119,-1,-1,-1,-1,-1,-1,-1,-1,-1,-1,-1,-1,-1,-1,-1,-1,-1,-1,-1,-1,-1,-1,-1,-1,-1,-1,-1,-1,-1,-1,-1,-1,-1,-1,-1,-1,-1,-1,-1,-1,-1,-1,-1,-1,-1,-1,-1,-1,-1,-1,-1,-1,-1,-1,-1,-1,-1,-1,-1],"loss_changes":[4.706282E3,1.8639392E3,1.5566357E3,5.183467E2,4.229902E2,3.9624298E2,2.7666553E2,1.9127783E2,3.055059E1,2.5196478E2,1.0064392E1,1.9552444E2,2.4043304E1,1.5738806E2,6.137622E1,1.4078271E2,4.882373E1,1.023786E1,2.1851807E0,7.356207E1,1.1782948E2,4.6123657E0,1.0167236E0,1.2617435E2,3.154065E1,8.42572E0,8.075867E0,4.925534E1,4.253943E1,2.5957703E1,1.6633545E1,3.3095703E1,1.3591431E1,9.90889E0,1.0173206E1,7.951667E0,3.970152E0,7.236233E-1,0E0,6.35318E0,8.452459E0,2.4751825E1,2.7492569E1,2.9458694E0,1.3180847E0,6.743622E-1,0E0,1.5769287E1,4.7528465E1,9.247709E0,5.5037155E0,1.9204077E0,2.2551727E0,6.436615E-1,4.600586E0,2.2989166E1,1.7590332E0,1.3237427E1,3.366089E-1,2.2623505E1,1.7112732E0,1.3731812E1,0E0,0E0,0E0,0E0,0E0,0E0,0E0,0E0,0E0,0E0,0E0,0E0,0E0,0E0,0E0,0E0,0E0,0E0,0E0,0E0,0E0,0E0,0E0,0E0,0E0,0E0,0E0,0E0,0E0,0E0,0E0,0E0,0E0,0E0,0E0,0E0,0E0,0E0,0E0,0E0,0E0,0E0,0E0,0E0,0E0,0E0,0E0,0E0,0E0,0E0,0E0,0E0,0E0,0E0,0E0,0E0,0E0,0E0,0E0],"parents":[2147483647,0,0,1,1,2,2,3,3,4,4,5,5,6,6,7,7,8,8,9,9,10,10,11,11,12,12,13,13,14,14,15,15,16,16,17,17,18,18,19,19,20,20,21,21,22,22,23,23,24,24,25,25,26,26,27,27,28,28,29,29,30,30,31,31,32,32,33,33,34,34,35,35,36,36,37,37,39,39,40,40,41,41,42,42,43,43,44,44,45,45,47,47,48,48,49,49,50,50,51,51,52,52,53,53,54,54,55,55,56,56,57,57,58,58,59,59,60,60,61,61],"right_children":[2,4,6,8,10,12,14,16,18,20,22,24,26,28,30,32,34,36,38,40,42,44,46,48,50,52,54,56,58,60,62,64,66,68,70,72,74,76,-1,78,80,82,84,86,88,90,-1,92,94,96,98,100,102,104,106,108,110,112,114,116,118,120,-1,-1,-1,-1,-1,-1,-1,-1,-1,-1,-1,-1,-1,-1,-1,-1,-1,-1,-1,-1,-1,-1,-1,-1,-1,-1,-1,-1,-1,-1,-1,-1,-1,-1,-1,-1,-1,-1,-1,-1,-1,-1,-1,-1,-1,-1,-1,-1,-1,-1,-1,-1,-1,-1,-1,-1,-1,-1,-1],"split_conditions":[1E0,2.9E1,2.9E1,1E0,1E0,1E0,4E0,6E0,2.6E1,3.3E1,5E0,1E1,1E0,3.4E1,3.3E1,2.6E1,2.5E1,1.5E1,9E0,5E0,4E0,3.3E1,6.5E1,2.4E1,2.5E1,2.1E1,2.4E1,1E0,1E0,1E0,1E0,1E0,2E0,2.2E1,1.5E1,2.2E1,1E0,2.7E1,2.7146026E-1,1E0,2.9E1,4E1,2.6E1,3.1E1,4.2E1,4.4E1,6.633074E-2,1E0,2.7E1,1E0,2.8E1,1E0,2.8E1,3E1,2.1E1,3.2E1,3.2E1,3.8E1,5.2E1,1.6E1,2.3E1,3.8E1,4.768217E-1,-4.6109933E-1,-3.7584928E-1,-3.1034425E-1,-2.157618E-1,-3.557706E-1,-2.229359E-1,-1.6213673E-1,-3.611504E-2,-1.9662061E-1,-5.9635006E-4,2.478146E-2,2.2442572E-1,2.210389E-1,1.4792223E-1,-2.0144182E-1,-1.5213065E-1,-2.7523978E-2,9.47676E-2,-3.9729945E-2,6.798554E-2,1.1939757E-1,2.788783E-1,2.8117687E-1,1.5812069E-1,3.055279E-1,4.3823776E-1,3.8590366E-1,5.1667887E-1,-2.4924064E-1,-1.2976736E-1,-9.138552E-2,1.1883674E-2,-1.7333016E-2,1.2533127E-1,1.6243438E-1,2.594036E-1,-1.8802933E-1,7.45465E-2,1.4758235E-1,2.248051E-1,2.1007289E-1,1.4227174E-1,2.598127E-1,3.4584418E-1,9.766355E-2,1.8567848E-1,2.5547406E-1,3.2218808E-1,2.4415055E-1,3.1989613E-1,4.4895157E-1,1.9955668E-1,1.9051912E-1,3.2829747E-1,3.5462552E-1,4.3576622E-1,3.4819722E-1,4.3260753E-1],"split_indices":[0,1,1,3,3,3,4,4,1,1,4,4,4,1,1,1,1,4,4,4,4,1,1,1,1,1,1,3,3,3,3,2,4,1,4,1,2,1,0,2,4,1,4,1,1,1,0,2,1,2,1,2,1,4,4,1,1,1,1,4,4,1,0,0,0,0,0,0,0,0,0,0,0,0,0,0,0,0,0,0,0,0,0,0,0,0,0,0,0,0,0,0,0,0,0,0,0,0,0,0,0,0,0,0,0,0,0,0,0,0,0,0,0,0,0,0,0,0,0,0,0],"split_type":[0,0,0,0,0,0,0,0,0,0,0,0,0,0,0,0,0,0,0,0,0,0,0,0,0,0,0,0,0,0,0,0,0,0,0,0,0,0,0,0,0,0,0,0,0,0,0,0,0,0,0,0,0,0,0,0,0,0,0,0,0,0,0,0,0,0,0,0,0,0,0,0,0,0,0,0,0,0,0,0,0,0,0,0,0,0,0,0,0,0,0,0,0,0,0,0,0,0,0,0,0,0,0,0,0,0,0,0,0,0,0,0,0,0,0,0,0,0,0,0,0],"sum_hessian":[1.4138235E4,6.707993E3,7.4302427E3,3.776496E3,2.931497E3,3.2154968E3,4.2147456E3,3.5299963E3,2.4649976E2,2.6374973E3,2.939997E2,2.5932473E3,6.222494E2,2.4707476E3,1.7439983E3,3.0477468E3,4.822495E2,1.3099986E2,1.15499886E2,1.2204988E3,1.4169985E3,1.5799985E2,1.3599986E2,2.1087478E3,4.844995E2,2.6174973E2,3.6049963E2,1.4157485E3,1.0549989E3,6.277494E2,1.1162489E3,1.869498E3,1.1782488E3,2.3274977E2,2.4949974E2,9.52499E1,3.5749966E1,7.624992E1,3.924996E1,9.90999E2,2.2949977E2,9.90499E2,4.2649957E2,8.1999916E1,7.599992E1,1.3474986E2,1.2499987E0,4.9974948E2,1.6089984E3,1.8424982E2,3.002497E2,9.9999895E0,2.5174974E2,8.5749916E1,2.7474973E2,1.1782488E3,2.3749976E2,8.857491E2,1.6924983E2,4.4124954E2,1.8649982E2,7.794992E2,3.3674966E2,1.1817488E3,6.877493E2,1.00774896E3,1.7049983E2,8.5999916E1,1.4674985E2,8.999991E1,1.5949983E2,2.4249975E1,7.099993E1,1.6749983E1,1.899998E1,2.6749973E1,4.949995E1,4.762495E2,5.1474945E2,1.5499985E2,7.449992E1,7.3124927E2,2.5924973E2,2.7399973E2,1.5249985E2,4.4249954E1,3.774996E1,6.024994E1,1.5749984E1,1.2124988E2,1.3499987E1,3.5674963E2,1.4299986E2,8.5324915E2,7.557492E2,1.2449987E2,5.974994E1,2.2624977E2,7.399992E1,6.999993E0,2.999997E0,2.0549979E2,4.6249954E1,5.5249943E1,3.049997E1,1.5624985E2,1.1849988E2,7.637492E2,4.1449957E2,1.5949983E2,7.799992E1,4.6599954E2,4.1974957E2,1.6649983E2,2.7499971E0,2.2424977E2,2.1699979E2,9.94999E1,8.699991E1,3.7399963E2,4.054996E2],"tree_param":{"num_deleted":"0","num_feature":"5","num_nodes":"121","size_leaf_vector":"1"}},{"base_weights":[3.9559475E-4,-4.3591678E-1,3.9254045E-1,-7.7836376E-1,-5.1134927E-3,-4.360658E-2,6.476582E-1,-8.510377E-1,2.3546611E-1,-9.550463E-2,8.236847E-1,-1.7036611E-1,5.0915736E-1,4.3902752E-1,8.519883E-1,-1.0960073E0,-7.102765E-1,-6.240499E-2,4.6315986E-1,-2.9799038E-1,1.5187114E-1,6.4388055E-1,9.5918286E-1,-2.8535578E-1,1.8877135E-1,3.1763488E-1,6.4980084E-1,3.2447562E-1,7.8229934E-1,6.579084E-1,1.0050833E0,-1.1930447E0,-8.6457765E-1,-7.837497E-1,-1.7319207E-1,-2.8937823E-1,2.8046346E-1,3.8355342E-1,6.5245384E-1,-3.9912605E-1,1.2810802E-2,3.230111E-2,5.1688766E-1,5.984893E-1,3.864567E-1,9.744753E-1,1.8568996E-1,-6.038536E-1,-2.139009E-1,6.2411204E-3,3.346993E-1,-2.680487E-1,3.4727657E-1,4.4702086E-1,7.318442E-1,2.534386E-1,6.4967626E-1,7.144013E-1,9.214917E-1,5.914565E-1,1.0277468E0,9.3300664E-1,1.1908206E0,-3.758539E-1,-2.4122138E-1,-2.8374705E-1,-1.6376829E-1,-2.731769E-1,-2.114656E-1,-9.325902E-2,6.602669E-4,-2.2650936E-1,-4.8004802E-2,-3.5517376E-3,1.6871691E-1,5.414174E-2,1.2792018E-1,2.3454632E-1,1.662323E-1,-1.4068034E-1,-7.661784E-2,-4.8627142E-2,4.2866673E-2,-3.579465E-2,4.294955E-2,1.06251426E-1,2.1166082E-1,1.4503796E-1,2.0320351E-1,2.6263452E-1,3.6056262E-1,-1.5110634E-1,1.7969087E-1,-2.0907266E-1,-9.441095E-2,-9.033369E-2,-4.0932886E-2,-6.356751E-2,4.405676E-2,1.26078E-1,6.155164E-2,6.540433E-2,-1.369425E-1,7.467212E-2,1.2178603E-1,8.9579165E-2,1.5091547E-1,1.83257E-1,2.54709E-1,6.577847E-2,1.24698855E-1,1.8159622E-1,2.57991E-1,1.7818968E-1,2.312812E-1,2.1588102E-1,3.1828734E-1,1.798241E-1,-1.771425E-1,2.3494996E-1,3.229284E-1,2.40221E-1,3.1883013E-1,3.3533186E-1,3.8761258E-1],"categories":[],"categories_nodes":[],"categories_segments":[],"categories_sizes":[],"default_left":[0,0,0,0,0,0,0,0,0,0,0,0,0,0,0,0,0,0,0,0,0,0,0,0,0,0,0,0,0,0,0,0,0,0,0,0,0,0,0,0,0,0,0,0,0,0,0,0,0,0,0,0,0,0,0,0,0,0,0,0,0,0,0,0,0,0,0,0,0,0,0,0,0,0,0,0,0,0,0,0,0,0,0,0,0,0,0,0,0,0,0,0,0,0,0,0,0,0,0,0,0,0,0,0,0,0,0,0,0,0,0,0,0,0,0,0,0,0,0,0,0,0,0,0,0],"id":1,"left_children":[1,3,5,7,9,11,13,15,17,19,21,23,25,27,29,31,33,35,37,39,41,43,45,47,49,51,53,55,57,59,61,63,65,67,69,71,73,75,77,79,81,83,85,87,-1,89,91,93,95,97,99,101,103,105,107,109,111,113,115,117,119,121,123,-1,-1,-1,-1,-1,-1,-1,-1,-1,-1,-1,-1,-1,-1,-1,-1,-1,-1,-1,-1,-1,-1,-1,-1,-1,-1,-1,-1,-1,-1,-1,-1,-1,-1,-1,-1,-1,-1,-1,-1,-1,-1,-1,-1,-1,-1,-1,-1,-1,-1,-1,-1,-1,-1,-1,-1,-1,-1,-1,-1,-1,-1],"loss_changes":[2.3755945E3,9.695614E2,8.136625E2,2.6997803E2,2.1820235E2,1.8924399E2,1.9630627E2,1.1704175E2,1.6692795E1,1.315895E2,6.3605347E0,9.0774414E1,1.3365295E1,8.959369E1,6.856372E1,2.6928589E1,8.560608E1,8.433433E0,1.8499165E0,4.5408386E1,5.1602825E1,2.9178085E0,1.7269287E0,3.774945E1,1.4205282E1,3.830658E0,4.4900665E0,3.945175E1,4.7380676E0,2.471289E1,1.629956E1,1.9336426E1,9.101074E0,1.8474731E1,6.3453035E0,3.7987952E0,3.571332E0,7.9786205E-1,7.357597E-2,1.0815506E1,8.113297E0,1.5009698E1,8.706146E0,7.5826263E-1,0E0,2.5041962E0,1.5445813E0,7.972084E0,9.152481E0,7.3309717E0,3.1985245E0,1.1010599E0,1.0842648E0,5.647831E-1,2.381874E0,7.7213516E0,2.341217E0,2.1855621E0,4.4105835E0,8.589874E0,1.0092316E0,1.5309448E1,1.2174377E0,0E0,0E0,0E0,0E0,0E0,0E0,0E0,0E0,0E0,0E0,0E0,0E0,0E0,0E0,0E0,0E0,0E0,0E0,0E0,0E0,0E0,0E0,0E0,0E0,0E0,0E0,0E0,0E0,0E0,0E0,0E0,0E0,0E0,0E0,0E0,0E0,0E0,0E0,0E0,0E0,0E0,0E0,0E0,0E0,0E0,0E0,0E0,0E0,0E0,0E0,0E0,0E0,0E0,0E0,0E0,0E0,0E0,0E0,0E0,0E0,0E0,0E0],"parents":[2147483647,0,0,1,1,2,2,3,3,4,4,5,5,6,6,7,7,8,8,9,9,10,10,11,11,12,12,13,13,14,14,15,15,16,16,17,17,18,18,19,19,20,20,21,21,22,22,23,23,24,24,25,25,26,26,27,27,28,28,29,29,30,30,31,31,32,32,33,33,34,34,35,35,36,36,37,37,38,38,39,39,40,40,41,41,42,42,43,43,45,45,46,46,47,47,48,48,49,49,50,50,51,51,52,52,53,53,54,54,55,55,56,56,57,57,58,58,59,59,60,60,61,61,62,62],"right_children":[2,4,6,8,10,12,14,16,18,20,22,24,26,28,30,32,34,36,38,40,42,44,46,48,50,52,54,56,58,60,62,64,66,68,70,72,74,76,78,80,82,84,86,88,-1,90,92,94,96,98,100,102,104,106,108,110,112,114,116,118,120,122,124,-1,-1,-1,-1,-1,-1,-1,-1,-1,-1,-1,-1,-1,-1,-1,-1,-1,-1,-1,-1,-1,-1,-1,-1,-1,-1,-1,-1,-1,-1,-1,-1,-1,-1,-1,-1,-1,-1,-1,-1,-1,-1,-1,-1,-1,-1,-1,-1,-1,-1,-1,-1,-1,-1,-1,-1,-1,-1,-1,-1,-1,-1],"split_conditions":[1E0,2.9E1,2.8E1,1E0,1E0,1E0,3.3E1,2.4E1,2.5E1,3.4E1,2E0,5E0,1E0,9E0,2E0,1E0,1E1,5E0,1.1E1,3E0,7E0,4.4E1,5.7E1,2.3E1,2.5E1,2.1E1,2.4E1,1E0,1E0,1E0,1E0,6E0,3E0,2.6E1,1E0,2.1E1,1E0,2.6E1,2.6E1,3.2E1,3.1E1,3.7E1,2.7E1,3.2E1,3.864567E-1,3.8E1,6.2E1,1E0,2.6E1,1.5E1,1E0,1.9E1,1E0,2.1E1,1.6E1,3.2E1,4E0,1.6E1,3E1,7.3E1,3.4E1,3.8E1,3.9E1,-3.758539E-1,-2.4122138E-1,-2.8374705E-1,-1.6376829E-1,-2.731769E-1,-2.114656E-1,-9.325902E-2,6.602669E-4,-2.2650936E-1,-4.8004802E-2,-3.5517376E-3,1.6871691E-1,5.414174E-2,1.2792018E-1,2.3454632E-1,1.662323E-1,-1.4068034E-1,-7.661784E-2,-4.8627142E-2,4.2866673E-2,-3.579465E-2,4.294955E-2,1.06251426E-1,2.1166082E-1,1.4503796E-1,2.0320351E-1,2.6263452E-1,3.6056262E-1,-1.5110634E-1,1.7969087E-1,-2.0907266E-1,-9.441095E-2,-9.033369E-2,-4.0932886E-2,-6.356751E-2,4.405676E-2,1.26078E-1,6.155164E-2,6.540433E-2,-1.369425E-1,7.467212E-2,1.2178603E-1,8.9579165E-2,1.5091547E-1,1.83257E-1,2.54709E-1,6.577847E-2,1.24698855E-1,1.8159622E-1,2.57991E-1,1.7818968E-1,2.312812E-1,2.1588102E-1,3.1828734E-1,1.798241E-1,-1.771425E-1,2.3494996E-1,3.229284E-1,2.40221E-1,3.1883013E-1,3.3533186E-1,3.8761258E-1],"split_indices":[0,1,1,3,3,3,1,1,1,1,4,4,4,4,4,2,4,4,4,4,4,1,1,1,1,1,1,3,3,3,3,4,4,1,2,1,2,1,4,1,1,1,4,1,0,1,1,2,1,4,2,1,2,1,4,1,4,4,1,1,1,1,1,0,0,0,0,0,0,0,0,0,0,0,0,0,0,0,0,0,0,0,0,0,0,0,0,0,0,0,0,0,0,0,0,0,0,0,0,0,0,0,0,0,0,0,0,0,0,0,0,0,0,0,0,0,0,0,0,0,0,0,0,0,0],"split_type":[0,0,0,0,0,0,0,0,0,0,0,0,0,0,0,0,0,0,0,0,0,0,0,0,0,0,0,0,0,0,0,0,0,0,0,0,0,0,0,0,0,0,0,0,0,0,0,0,0,0,0,0,0,0,0,0,0,0,0,0,0,0,0,0,0,0,0,0,0,0,0,0,0,0,0,0,0,0,0,0,0,0,0,0,0,0,0,0,0,0,0,0,0,0,0,0,0,0,0,0,0,0,0,0,0,0,0,0,0,0,0,0,0,0,0,0,0,0,0,0,0,0,0,0,0],"sum_hessian":[1.3882437E4,6.5711084E3,7.3113276E3,3.6605322E3,2.9105762E3,2.69862E3,4.6127075E3,3.415837E3,2.4469534E2,2.625154E3,2.8542215E2,2.1957776E3,5.0284268E2,2.283893E3,2.3288145E3,1.2440332E3,2.1718037E3,1.0632539E2,1.3836995E2,1.4434418E3,1.1817123E3,1.2512929E2,1.6029286E2,1.663393E3,5.323845E2,2.1428992E2,2.8855276E2,1.7138995E3,5.699936E2,1.0292819E3,1.2995326E3,8.7358734E2,3.7044586E2,1.9100493E3,2.6175433E2,6.406887E1,4.2256523E1,9.953665E1,3.88333E1,1.0888442E3,3.545975E2,8.9094885E2,2.907635E2,1.1869608E2,6.433206E0,1.569304E2,3.362452E0,3.0343463E2,1.3599584E3,2.3699199E2,2.9539255E2,9.935404E0,2.0435452E2,8.497513E1,2.0357764E2,1.408094E3,3.0580557E2,3.8723358E2,1.8276001E2,8.74714E2,1.5456784E2,9.405635E2,3.5896912E2,7.552524E2,1.18334984E2,2.9362143E2,7.682442E1,7.2824493E2,1.1818043E3,1.4621405E2,1.1554028E2,1.2877693E1,5.1191177E1,2.1216818E1,2.1039703E1,1.824999E1,8.128666E1,1.3770082E1,2.5063217E1,7.313699E2,3.574743E2,1.5113599E2,2.0346152E2,3.7627817E2,5.1467065E2,1.5765639E2,1.331071E2,5.1175568E1,6.7520515E1,1.12701546E2,4.422886E1,1.1782668E0,2.1841853E0,2.2849083E2,7.49438E1,6.3834546E2,7.216129E2,9.269273E1,1.4429926E2,1.7653545E2,1.1885709E2,2.7317007E0,7.203703E0,7.831104E1,1.2604348E2,2.5021942E1,5.9953182E1,1.0322081E2,1.0035682E2,1.165005E3,2.4308899E2,2.5574234E2,5.006324E1,1.2738282E2,2.5985077E2,7.7186295E1,1.05573715E2,8.6935406E2,5.3599377E0,2.8494663E1,1.2607317E2,4.6932864E2,4.7123486E2,2.1549623E2,1.4347287E2],"tree_param":{"num_deleted":"0","num_feature":"5","num_nodes":"125","size_leaf_vector":"1"}},{"base_weights":[3.4718862E-4,-3.216609E-1,2.871679E-1,-6.2539595E-1,-3.9028138E-2,7.260462E-2,5.8104205E-1,-6.806084E-1,1.3820821E-1,-1.0409205E-1,5.9071434E-1,-9.700051E-3,4.179097E-1,4.6916705E-1,8.111035E-1,-8.597513E-1,-5.6136E-1,-1.283074E-1,2.8415683E-1,-3.0074564E-1,5.0401766E-2,4.5844066E-1,7.3525786E-1,-1.660044E-1,1.4340864E-1,2.8261834E-1,5.1694816E-1,4.0914884E-1,7.700979E-1,7.28948E-1,9.315597E-1,-9.5008934E-1,-6.538781E-1,-6.3672054E-1,-2.7654955E-1,-5.1026076E-1,-3.6745984E-2,1.8519472E-1,6.4131427E-1,-3.617817E-1,8.7887265E-2,-5.2713428E-2,3.068664E-1,3.5761392E-1,6.0835457E-1,6.70863E-1,1.073652E0,-2.406309E-1,1.0355135E-1,7.591391E-2,4.2850697E-1,7.320226E-2,3.2175463E-1,3.2213077E-1,5.5994725E-1,2.7253848E-1,5.53395E-1,5.710512E-1,8.5665715E-1,6.6316116E-1,2.6111555E-1,9.352448E-1,-6.491068E-2,-3.024353E-1,-1.7951263E-1,-2.1649833E-1,-1.1961859E-1,-2.126231E-1,-1.7292526E-1,-1.2366111E-1,-4.955635E-2,-2.4124569E-1,8.126618E-2,-4.519048E-2,1.1099601E-1,2.0672742E-2,8.138312E-2,1.5900502E-1,2.4437962E-1,-1.1912574E-1,-6.945653E-2,-2.099729E-2,7.8387536E-2,-1.3006606E-2,-3.5446697E-1,5.4650564E-2,1.5432486E-1,1.3455959E-1,5.857089E-2,2.709115E-1,1.0245651E-1,1.6192625E-1,2.3513989E-1,3.6903647E-1,9.1601476E-2,-9.95794E-2,-3.548E-2,3.2919642E-4,7.144097E-2,-1.6702008E-2,4.1879505E-2,1.01924844E-1,1.3987742E-1,-4.5412693E-2,9.236998E-2,1.3657565E-1,7.59801E-2,2.4977323E-1,8.997264E-2,1.4458026E-1,2.0161758E-1,7.624684E-2,1.0846291E-1,1.6911335E-1,-1.675606E-1,1.62671E-1,2.8555152E-1,2.3557812E-1,2.829161E-1,1.3456564E-1,2.1551071E-1,2.5589544E-1,2.9838434E-1],"categories":[],"categories_nodes":[],"categories_segments":[],"categories_sizes":[],"default_left":[0,0,0,0,0,0,0,0,0,0,0,0,0,0,0,0,0,0,0,0,0,0,0,0,0,0,0,0,0,0,0,0,0,0,0,0,0,0,0,0,0,0,0,0,0,0,0,0,0,0,0,0,0,0,0,0,0,0,0,0,0,0,0,0,0,0,0,0,0,0,0,0,0,0,0,0,0,0,0,0,0,0,0,0,0,0,0,0,0,0,0,0,0,0,0,0,0,0,0,0,0,0,0,0,0,0,0,0,0,0,0,0,0,0,0,0,0,0,0,0,0,0,0],"id":2,"left_children":[1,3,5,7,9,11,13,15,17,19,21,23,25,27,29,31,33,35,37,39,41,43,45,47,49,51,53,55,57,59,61,63,65,67,69,71,73,75,77,79,81,83,85,87,89,91,93,95,97,99,101,103,105,107,109,111,113,115,117,119,-1,121,-1,-1,-1,-1,-1,-1,-1,-1,-1,-1,-1,-1,-1,-1,-1,-1,-1,-1,-1,-1,-1,-1,-1,-1,-1,-1,-1,-1,-1,-1,-1,-1,-1,-1,-1,-1,-1,-1,-1,-1,-1,-1,-1,-1,-1,-1,-1,-1,-1,-1,-1,-1,-1,-1,-1,-1,-1,-1,-1,-1,-1],"loss_changes":[1.2387524E3,5.4240094E2,4.4725446E2,1.2849573E2,1.3421188E2,1.1656447E2,7.6666016E1,6.019458E1,8.056799E0,9.019832E1,5.5276947E0,7.930645E1,1.0431488E1,3.6104553E1,8.999695E0,2.0454834E1,3.6486206E1,2.5569084E0,4.6012974E0,3.101368E1,4.4000587E1,2.2436256E0,2.4376144E0,3.301116E1,3.2181377E1,2.7290344E0,3.6275787E0,3.3019165E1,5.268112E0,4.8758545E0,1.8647461E0,1.5426575E1,5.744995E0,5.454651E0,5.3577423E0,3.4693942E0,2.8575516E0,1.0421247E0,1.1921692E-1,5.100128E0,4.8938456E0,1.2489228E1,1.225412E1,1.3854542E0,4.727844E0,1.4191589E0,2.2094269E0,1.4311676E1,4.91193E0,1.136145E1,9.146309E-1,2.902173E0,2.469202E0,7.0931053E-1,2.9211884E0,1.3257904E0,9.695602E0,6.279907E-1,6.836548E-1,4.466812E0,0E0,1.0656128E0,0E0,0E0,0E0,0E0,0E0,0E0,0E0,0E0,0E0,0E0,0E0,0E0,0E0,0E0,0E0,0E0,0E0,0E0,0E0,0E0,0E0,0E0,0E0,0E0,0E0,0E0,0E0,0E0,0E0,0E0,0E0,0E0,0E0,0E0,0E0,0E0,0E0,0E0,0E0,0E0,0E0,0E0,0E0,0E0,0E0,0E0,0E0,0E0,0E0,0E0,0E0,0E0,0E0,0E0,0E0,0E0,0E0,0E0,0E0,0E0,0E0],"parents":[2147483647,0,0,1,1,2,2,3,3,4,4,5,5,6,6,7,7,8,8,9,9,10,10,11,11,12,12,13,13,14,14,15,15,16,16,17,17,18,18,19,19,20,20,21,21,22,22,23,23,24,24,25,25,26,26,27,27,28,28,29,29,30,30,31,31,32,32,33,33,34,34,35,35,36,36,37,37,38,38,39,39,40,40,41,41,42,42,43,43,44,44,45,45,46,46,47,47,48,48,49,49,50,50,51,51,52,52,53,53,54,54,55,55,56,56,57,57,58,58,59,59,61,61],"right_children":[2,4,6,8,10,12,14,16,18,20,22,24,26,28,30,32,34,36,38,40,42,44,46,48,50,52,54,56,58,60,62,64,66,68,70,72,74,76,78,80,82,84,86,88,90,92,94,96,98,100,102,104,106,108,110,112,114,116,118,120,-1,122,-1,-1,-1,-1,-1,-1,-1,-1,-1,-1,-1,-1,-1,-1,-1,-1,-1,-1,-1,-1,-1,-1,-1,-1,-1,-1,-1,-1,-1,-1,-1,-1,-1,-1,-1,-1,-1,-1,-1,-1,-1,-1,-1,-1,-1,-1,-1,-1,-1,-1,-1,-1,-1,-1,-1,-1,-1,-1,-1,-1,-1],"split_conditions":[1E0,2.8E1,3.1E1,1E0,1E0,1E0,1E1,2.4E1,2.4E1,3.2E1,3.3E1,2.7E1,1E0,1E0,3.8E1,1E0,3E0,2E1,1.6E1,9E0,4E0,5E0,4.4E1,6E0,1E1,2.4E1,2.4E1,3.5E1,3.3E1,1E0,9.2E1,6E0,3E0,2.6E1,2.6E1,1E0,2.1E1,2.6E1,2.7E1,3.1E1,2.9E1,7.1E1,3.9E1,3.1E1,2.2E1,4E0,5.7E1,1E0,3E1,2.8E1,2.8E1,1E0,1E0,1.7E1,2.1E1,3E0,7.3E1,7E0,1E0,1.5E1,2.6111555E-1,4.2E1,-6.491068E-2,-3.024353E-1,-1.7951263E-1,-2.1649833E-1,-1.1961859E-1,-2.126231E-1,-1.7292526E-1,-1.2366111E-1,-4.955635E-2,-2.4124569E-1,8.126618E-2,-4.519048E-2,1.1099601E-1,2.0672742E-2,8.138312E-2,1.5900502E-1,2.4437962E-1,-1.1912574E-1,-6.945653E-2,-2.099729E-2,7.8387536E-2,-1.3006606E-2,-3.5446697E-1,5.4650564E-2,1.5432486E-1,1.3455959E-1,5.857089E-2,2.709115E-1,1.0245651E-1,1.6192625E-1,2.3513989E-1,3.6903647E-1,9.1601476E-2,-9.95794E-2,-3.548E-2,3.2919642E-4,7.144097E-2,-1.6702008E-2,4.1879505E-2,1.01924844E-1,1.3987742E-1,-4.5412693E-2,9.236998E-2,1.3657565E-1,7.59801E-2,2.4977323E-1,8.997264E-2,1.4458026E-1,2.0161758E-1,7.624684E-2,1.0846291E-1,1.6911335E-1,-1.675606E-1,1.62671E-1,2.8555152E-1,2.3557812E-1,2.829161E-1,1.3456564E-1,2.1551071E-1,2.5589544E-1,2.9838434E-1],"split_indices":[0,1,1,3,3,3,4,1,1,1,1,1,4,3,1,2,4,1,4,4,4,4,1,4,4,1,1,1,1,3,1,4,4,1,1,2,4,1,1,1,4,1,1,1,4,4,1,2,4,1,1,2,2,1,4,4,1,4,4,4,0,1,0,0,0,0,0,0,0,0,0,0,0,0,0,0,0,0,0,0,0,0,0,0,0,0,0,0,0,0,0,0,0,0,0,0,0,0,0,0,0,0,0,0,0,0,0,0,0,0,0,0,0,0,0,0,0,0,0,0,0,0,0],"split_type":[0,0,0,0,0,0,0,0,0,0,0,0,0,0,0,0,0,0,0,0,0,0,0,0,0,0,0,0,0,0,0,0,0,0,0,0,0,0,0,0,0,0,0,0,0,0,0,0,0,0,0,0,0,0,0,0,0,0,0,0,0,0,0,0,0,0,0,0,0,0,0,0,0,0,0,0,0,0,0,0,0,0,0,0,0,0,0,0,0,0,0,0,0,0,0,0,0,0,0,0,0,0,0,0,0,0,0,0,0,0,0,0,0,0,0,0,0,0,0,0,0,0,0],"sum_hessian":[1.3410422E4,6.317625E3,7.0927974E3,3.0445483E3,3.2730767E3,4.1003203E3,2.9924773E3,2.8393572E3,2.0519121E2,2.9673318E3,3.057449E2,3.3118914E3,7.884289E2,2.0154415E3,9.7703564E2,1.1322324E3,1.7071246E3,7.264876E1,1.3254245E2,1.3051161E3,1.6622157E3,1.6182674E2,1.4391815E2,1.6388011E3,1.6730902E3,3.348547E2,4.535742E2,1.6822833E3,3.3315817E2,5.850567E2,3.9197897E2,7.844134E2,3.47819E2,1.3489565E3,3.5816815E2,1.3163526E1,5.9485237E1,1.04974396E2,2.7568052E1,1.1280253E3,1.7709088E2,1.1861157E3,4.7609995E2,9.8777794E1,6.3048943E1,1.2341526E2,2.0502888E1,1.283556E3,3.5524506E2,1.3538446E3,3.192455E2,5.3177155E1,2.8167755E2,8.354513E1,3.7002905E2,8.654942E2,8.167892E2,1.0327356E2,2.2988463E2,4.0320312E2,1.8185359E2,3.9090933E2,1.0696375E0,6.7172144E2,1.12691925E2,2.733678E2,7.4451225E1,6.098401E2,7.3911646E2,1.6025443E2,1.9791373E2,9.543517E0,3.620009E0,4.696441E1,1.2520826E1,4.5419407E1,5.9554985E1,1.9257776E1,8.310277E0,8.858788E2,2.4214644E2,9.300747E1,8.408341E1,1.1773936E3,8.722152E0,2.9858496E2,1.7751498E2,6.219273E1,3.6585068E1,2.882787E1,3.4221073E1,5.9787205E1,6.362806E1,1.6534515E1,3.9683728E0,7.341026E2,5.494535E2,2.0227205E2,1.52973E2,4.4157364E2,9.12271E2,9.824912E1,2.2099638E2,2.7355856E1,2.5821299E1,9.359432E1,1.8808322E2,1.96404E0,8.1581085E1,2.2132088E2,1.4870818E2,7.205355E2,1.4495863E2,8.097694E2,7.0197806E0,9.826196E1,5.011599E0,1.3139268E2,9.849195E1,8.4367386E1,3.1883572E2,1.7030678E2,2.2060254E2],"tree_param":{"num_deleted":"0","num_feature":"5","num_nodes":"123","size_leaf_vector":"1"}},{"base_weights":[3.238471E-4,-2.3841532E-1,2.1088995E-1,-4.7841766E-1,-2.7092028E-2,5.2278023E-2,4.380815E-1,-5.229235E-1,1.00656815E-1,-7.407454E-2,4.4900003E-1,-6.738485E-3,3.0595586E-1,3.579037E-1,6.706308E-1,-6.8628335E-1,-4.199219E-1,-9.236812E-2,2.0705974E-1,-1.492648E-1,1.6586754E-1,4.0526524E-1,8.0676323E-1,-1.89944E-1,6.4013526E-2,2.4297547E-1,4.381339E-1,3.0711102E-1,6.152938E-1,5.735528E-1,7.5770515E-1,-7.737134E-1,-4.9820763E-1,-4.815764E-1,-1.9790584E-1,-2.1295564E-1,7.066785E-2,1.3204199E-1,4.8759663E-1,-1.9703391E-1,1.2353269E-1,2.3166664E-2,3.0582654E-1,4.2053115E-1,-3.1350523E-1,8.806918E-1,2.3722503E-1,-2.8490505E-1,-2.1873938E-2,1.4820925E-2,2.8363094E-1,-1.743514E-1,2.5786415E-1,3.8873175E-1,1.7936993E-1,2.4919915E-1,5.0216055E-1,4.718442E-1,7.217481E-1,4.5290357E-1,6.4139843E-1,7.609977E-1,-6.198141E-2,-2.4966599E-1,-1.3448976E-1,-1.5906838E-1,-3.0154139E-2,-1.639756E-1,-1.2864693E-1,-8.783162E-2,-8.738279E-3,-2.0158313E-1,-3.8843807E-2,-4.454716E-3,8.597336E-2,5.2628398E-2,-8.708092E-3,1.18221544E-1,1.9236368E-1,-8.5958615E-2,-3.6698878E-2,1.1153163E-2,6.570498E-2,1.4715037E-2,-2.9997298E-1,7.384922E-2,1.4841838E-1,9.808118E-2,1.640454E-1,1.4253768E-2,-2.633109E-1,1.7672224E-1,3.2179928E-1,-1.5667433E-1,1.844207E-1,-1.0965679E-1,-2.7409904E-2,-2.7272284E-2,1.4208466E-1,-1.767622E-2,2.9450016E-2,1.3398667E-1,7.796461E-2,-3.0169014E-3,-1.3588181E-1,5.068541E-2,8.944346E-2,2.980314E-1,1.13462694E-1,6.1842382E-2,1.0054413E-1,1.5715405E-1,-1.6830397E-1,1.460249E-1,-5.15839E-2,1.975264E-1,2.564775E-1,1.7565021E-1,6.9356844E-2,1.769506E-1,2.2131403E-1,2.2033183E-1,2.8876466E-1],"categories":[],"categories_nodes":[],"categories_segments":[],"categories_sizes":[],"default_left":[0,0,0,0,0,0,0,0,0,0,0,0,0,0,0,0,0,0,0,0,0,0,0,0,0,0,0,0,0,0,0,0,0,0,0,0,0,0,0,0,0,0,0,0,0,0,0,0,0,0,0,0,0,0,0,0,0,0,0,0,0,0,0,0,0,0,0,0,0,0,0,0,0,0,0,0,0,0,0,0,0,0,0,0,0,0,0,0,0,0,0,0,0,0,0,0,0,0,0,0,0,0,0,0,0,0,0,0,0,0,0,0,0,0,0,0,0,0,0,0,0,0,0],"id":3,"left_children":[1,3,5,7,9,11,13,15,17,19,21,23,25,27,29,31,33,35,37,39,41,43,45,47,49,51,53,55,57,59,61,63,65,67,69,71,73,75,77,79,81,83,85,87,89,91,93,95,97,99,101,103,105,107,-1,109,111,113,115,117,119,121,-1,-1,-1,-1,-1,-1,-1,-1,-1,-1,-1,-1,-1,-1,-1,-1,-1,-1,-1,-1,-1,-1,-1,-1,-1,-1,-1,-1,-1,-1,-1,-1,-1,-1,-1,-1,-1,-1,-1,-1,-1,-1,-1,-1,-1,-1,-1,-1,-1,-1,-1,-1,-1,-1,-1,-1,-1,-1,-1,-1,-1],"loss_changes":[6.502617E2,3.074451E2,2.4765442E2,7.320398E1,7.216367E1,6.0614532E1,5.2443726E1,4.406549E1,4.197015E0,5.2992767E1,4.207226E0,4.2598972E1,6.2547073E0,2.7308441E1,5.679352E0,1.6349854E1,2.206903E1,1.449785E0,2.70183E0,2.916161E1,1.3993147E1,2.987255E0,1.077671E0,1.4606487E1,2.5609886E1,3.2746162E0,1.7040939E0,1.9739868E1,4.9378815E0,2.5426102E0,1.3579559E0,1.2820099E1,4.095337E0,4.109314E0,5.6535225E0,1.5298254E0,5.9100866E-1,7.3940635E-1,1.4041042E-1,1.2688683E1,2.7442522E0,9.268956E0,3.8657684E0,2.8381157E0,1.260746E0,8.615818E-1,1.7199982E0,9.0933075E0,1.1386623E1,1.1917291E1,1.5631943E0,8.422849E-1,1.748539E0,8.349552E-1,0E0,4.956543E0,9.553955E0,1.5243416E0,1.0945206E0,3.6270714E0,6.5314484E-1,1.311615E0,0E0,0E0,0E0,0E0,0E0,0E0,0E0,0E0,0E0,0E0,0E0,0E0,0E0,0E0,0E0,0E0,0E0,0E0,0E0,0E0,0E0,0E0,0E0,0E0,0E0,0E0,0E0,0E0,0E0,0E0,0E0,0E0,0E0,0E0,0E0,0E0,0E0,0E0,0E0,0E0,0E0,0E0,0E0,0E0,0E0,0E0,0E0,0E0,0E0,0E0,0E0,0E0,0E0,0E0,0E0,0E0,0E0,0E0,0E0,0E0,0E0],"parents":[2147483647,0,0,1,1,2,2,3,3,4,4,5,5,6,6,7,7,8,8,9,9,10,10,11,11,12,12,13,13,14,14,15,15,16,16,17,17,18,18,19,19,20,20,21,21,22,22,23,23,24,24,25,25,26,26,27,27,28,28,29,29,30,30,31,31,32,32,33,33,34,34,35,35,36,36,37,37,38,38,39,39,40,40,41,41,42,42,43,43,44,44,45,45,46,46,47,47,48,48,49,49,50,50,51,51,52,52,53,53,55,55,56,56,57,57,58,58,59,59,60,60,61,61],"right_children":[2,4,6,8,10,12,14,16,18,20,22,24,26,28,30,32,34,36,38,40,42,44,46,48,50,52,54,56,58,60,62,64,66,68,70,72,74,76,78,80,82,84,86,88,90,92,94,96,98,100,102,104,106,108,-1,110,112,114,116,118,120,122,-1,-1,-1,-1,-1,-1,-1,-1,-1,-1,-1,-1,-1,-1,-1,-1,-1,-1,-1,-1,-1,-1,-1,-1,-1,-1,-1,-1,-1,-1,-1,-1,-1,-1,-1,-1,-1,-1,-1,-1,-1,-1,-1,-1,-1,-1,-1,-1,-1,-1,-1,-1,-1,-1,-1,-1,-1,-1,-1,-1,-1],"split_conditions":[1E0,2.8E1,3.1E1,1E0,1E0,1E0,1.5E1,2.4E1,2.4E1,3.7E1,4.2E1,2.5E1,1.2E1,1E0,3.6E1,1E0,3E0,5E0,1.6E1,9E0,1E0,4.1E1,5.7E1,1E0,1E1,2.1E1,2.9E1,3.9E1,3.4E1,2.9E1,8.9E1,6E0,3E1,2.6E1,1.7E1,2E1,2.3E1,4E0,2.7E1,3.1E1,2.9E1,7.1E1,2.7E1,5E0,2.1E1,4.4E1,6E1,4E0,1.6E1,2.8E1,1.1E1,2E1,2.6E1,1.7E1,1.7936993E-1,3.5E1,7.3E1,1.3E1,4E1,1E0,1E0,5.1E1,-6.198141E-2,-2.4966599E-1,-1.3448976E-1,-1.5906838E-1,-3.0154139E-2,-1.639756E-1,-1.2864693E-1,-8.783162E-2,-8.738279E-3,-2.0158313E-1,-3.8843807E-2,-4.454716E-3,8.597336E-2,5.2628398E-2,-8.708092E-3,1.18221544E-1,1.9236368E-1,-8.5958615E-2,-3.6698878E-2,1.1153163E-2,6.570498E-2,1.4715037E-2,-2.9997298E-1,7.384922E-2,1.4841838E-1,9.808118E-2,1.640454E-1,1.4253768E-2,-2.633109E-1,1.7672224E-1,3.2179928E-1,-1.5667433E-1,1.844207E-1,-1.0965679E-1,-2.7409904E-2,-2.7272284E-2,1.4208466E-1,-1.767622E-2,2.9450016E-2,1.3398667E-1,7.796461E-2,-3.0169014E-3,-1.3588181E-1,5.068541E-2,8.944346E-2,2.980314E-1,1.13462694E-1,6.1842382E-2,1.0054413E-1,1.5715405E-1,-1.6830397E-1,1.460249E-1,-5.15839E-2,1.975264E-1,2.564775E-1,1.7565021E-1,6.9356844E-2,1.769506E-1,2.2131403E-1,2.2033183E-1,2.8876466E-1],"split_indices":[0,1,1,3,3,3,4,1,1,1,1,1,4,3,1,2,4,4,4,4,4,1,1,2,4,1,1,1,1,4,1,4,4,1,4,1,1,4,1,1,4,1,4,4,4,1,1,4,4,1,4,1,1,1,0,1,1,4,1,2,3,1,0,0,0,0,0,0,0,0,0,0,0,0,0,0,0,0,0,0,0,0,0,0,0,0,0,0,0,0,0,0,0,0,0,0,0,0,0,0,0,0,0,0,0,0,0,0,0,0,0,0,0,0,0,0,0,0,0,0,0,0,0],"split_type":[0,0,0,0,0,0,0,0,0,0,0,0,0,0,0,0,0,0,0,0,0,0,0,0,0,0,0,0,0,0,0,0,0,0,0,0,0,0,0,0,0,0,0,0,0,0,0,0,0,0,0,0,0,0,0,0,0,0,0,0,0,0,0,0,0,0,0,0,0,0,0,0,0,0,0,0,0,0,0,0,0,0,0,0,0,0,0,0,0,0,0,0,0,0,0,0,0,0,0,0,0,0,0,0,0,0,0,0,0,0,0,0,0,0,0,0,0,0,0,0,0,0,0],"sum_hessian":[1.2933285E4,6.0610986E3,6.8721865E3,2.8373843E3,3.2237146E3,4.0476104E3,2.824576E3,2.634966E3,2.0241826E2,2.9349294E3,2.8878516E2,3.2844724E3,7.631379E2,2.1022915E3,7.222844E2,1.0167481E3,1.6182179E3,7.1977036E1,1.3044122E2,2.2349458E3,6.999835E2,2.5922852E2,2.955664E1,9.145775E2,2.369895E3,5.187847E2,2.4435309E2,1.7576375E3,3.4465408E2,3.451113E2,3.7717316E2,6.9196356E2,3.2478452E2,1.2655906E3,3.5262732E2,4.1198727E1,3.077831E1,1.0408008E2,2.6361145E1,1.9021426E3,3.3280325E2,3.471739E2,3.5280966E2,2.5424358E2,4.9849353E0,2.567729E1,3.879351E0,5.8394714E2,3.3063037E2,1.937073E3,4.328219E2,1.7501822E1,5.0128293E2,1.8926308E2,5.509002E1,1.3570078E3,4.0062967E2,1.4913016E2,1.9552393E2,1.2697985E2,2.1813144E2,3.7609982E2,1.0733294E0,5.8519366E2,1.0676992E2,3.002747E2,2.450985E1,5.6274646E2,7.028441E2,2.2527243E2,1.2735488E2,5.254998E0,3.594373E1,2.2713322E1,8.064989E0,8.192372E1,2.2156355E1,1.860145E1,7.759694E0,8.641122E2,1.0380305E3,1.7548462E2,1.5731862E2,3.3953583E2,7.6380754E0,2.698755E2,8.293416E1,1.4808408E2,1.0615951E2,3.5982692E0,1.3866662E0,1.18083E1,1.3868989E1,1.160755E0,2.718596E0,4.116061E2,1.7234103E2,2.9091534E2,3.971502E1,1.0279071E3,9.091659E2,5.2780136E1,3.8004178E2,1.166096E1,5.8408623E0,1.5791238E2,3.4337054E2,1.6394831E0,1.876236E2,9.063475E2,4.506603E2,3.9311826E2,7.5114017E0,1.4599394E2,3.1362035E0,1.3654126E2,5.8982662E1,7.843228E1,4.854757E1,1.4671194E2,7.1419495E1,3.364146E2,3.9685207E1],"tree_param":{"num_deleted":"0","num_feature":"5","num_nodes":"123","size_leaf_vector":"1"}},{"base_weights":[2.4371962E-4,-1.686195E-1,1.62167E-1,-3.4269828E-1,2.598122E-3,4.652472E-3,2.8488714E-1,-3.7744486E-1,7.375306E-2,-7.540175E-2,1.2558402E-1,-3.0163737E-2,3.7348267E-1,2.1211065E-1,4.688304E-1,-5.464518E-1,-2.9521734E-1,-3.555734E-2,1.6066676E-1,-2.9623905E-1,-3.7580926E-2,6.2682725E-2,2.3287052E-1,-7.0257835E-2,1.8282655E-1,3.4230134E-1,7.8592646E-1,1.4688285E-1,3.412193E-1,3.895945E-1,5.840815E-1,-6.30304E-1,-3.7702814E-1,-3.5139748E-1,-1.08358875E-1,-1.5866622E-1,1.515755E-1,2.2113907E-1,1.079408E-1,-3.3801922E-1,1.724796E-3,-6.621004E-2,1.3472411E-1,1.2011695E-2,2.1693921E-1,1.9985397E-1,3.2315522E-1,-9.3558654E-2,1.5026961E-1,2.0287827E-1,-5.291232E-1,2.3429902E-1,4.387247E-1,2.8648674E-1,1.795066E-1,1.1059494E-1,3.340453E-1,2.7659053E-1,4.8033243E-1,3.3736315E-1,5.145597E-1,5.271294E-1,7.180222E-1,-2.0657933E-1,-1.0029653E-1,-1.2965858E-1,-5.6045916E-2,-1.2564822E-1,-9.39158E-2,-7.388305E-2,-9.971494E-3,-3.8006023E-2,-2.9833677E-1,-3.1740763E-3,1.0264593E-1,1.1865173E-1,3.787748E-2,-3.909603E-3,5.8098774E-2,-1.1629342E-1,-7.921703E-2,-3.8175453E-2,4.6582542E-2,-1.627488E-2,-7.319889E-2,3.7056427E-2,9.4253615E-2,-8.288783E-3,3.6598563E-2,4.1081063E-2,8.8025704E-2,7.627478E-2,3.820335E-2,1.7801157E-1,8.728518E-2,-4.660007E-2,-8.59982E-3,-6.0502817E-3,7.2714254E-2,3.7856553E-2,1.0325771E-1,-2.1877064E-1,9.5378496E-2,4.7277853E-2,8.7312326E-2,9.2461884E-2,1.6344407E-1,-1.2867452E-1,1.5139528E-1,2.2378193E-2,4.8321474E-2,8.402638E-2,1.510888E-1,7.221356E-2,1.5696758E-1,1.6206975E-1,1.1281302E-1,7.762243E-2,1.2636445E-1,8.368246E-2,1.678423E-1,1.3103336E-1,1.9201367E-1,2.1890493E-1,5.979973E-2],"categories":[],"categories_nodes":[],"categories_segments":[],"categories_sizes":[],"default_left":[0,0,0,0,0,0,0,0,0,0,0,0,0,0,0,0,0,0,0,0,0,0,0,0,0,0,0,0,0,0,0,0,0,0,0,0,0,0,0,0,0,0,0,0,0,0,0,0,0,0,0,0,0,0,0,0,0,0,0,0,0,0,0,0,0,0,0,0,0,0,0,0,0,0,0,0,0,0,0,0,0,0,0,0,0,0,0,0,0,0,0,0,0,0,0,0,0,0,0,0,0,0,0,0,0,0,0,0,0,0,0,0,0,0,0,0,0,0,0,0,0,0,0,0,0],"id":4,"left_children":[1,3,5,7,9,11,13,15,17,19,21,23,25,27,29,31,33,35,37,39,41,43,45,47,49,51,53,55,57,59,61,63,65,67,69,71,73,75,77,79,81,83,85,87,89,91,93,95,97,99,101,103,105,-1,107,109,111,113,115,117,119,121,123,-1,-1,-1,-1,-1,-1,-1,-1,-1,-1,-1,-1,-1,-1,-1,-1,-1,-1,-1,-1,-1,-1,-1,-1,-1,-1,-1,-1,-1,-1,-1,-1,-1,-1,-1,-1,-1,-1,-1,-1,-1,-1,-1,-1,-1,-1,-1,-1,-1,-1,-1,-1,-1,-1,-1,-1,-1,-1,-1,-1,-1,-1],"loss_changes":[3.4220813E2,1.8260136E2,1.23499435E2,4.3986176E1,2.964755E1,3.5952496E1,4.797397E1,3.8806763E1,2.2362533E0,1.5784531E1,8.079527E0,2.1860647E1,2.8366737E0,2.1634438E1,9.0616E0,1.2783752E1,1.9786743E1,2.4386308E0,3.9372182E-1,3.441267E0,7.9795856E0,5.9180574E0,1.255743E0,1.1081349E1,5.897378E0,2.2537613E0,1.4893475E0,1.1593323E1,7.630615E0,3.7804642E0,2.767517E0,1.0322922E1,3.1295662E0,3.621872E0,4.5295243E0,1.5768169E0,1.304699E0,9.4353485E-1,7.483306E-1,7.873478E-1,7.12579E-1,2.9344983E0,4.246831E-1,2.493878E0,1.1054392E0,1.2571592E0,8.453741E-1,7.80698E0,3.2421703E0,4.239441E0,2.1620517E0,4.2803764E-1,1.4716053E0,0E0,1.1587262E0,2.5971642E0,2.3990498E0,5.112137E0,1.4994545E0,2.7266617E0,1.7134933E0,2.7110443E0,5.8205414E-1,0E0,0E0,0E0,0E0,0E0,0E0,0E0,0E0,0E0,0E0,0E0,0E0,0E0,0E0,0E0,0E0,0E0,0E0,0E0,0E0,0E0,0E0,0E0,0E0,0E0,0E0,0E0,0E0,0E0,0E0,0E0,0E0,0E0,0E0,0E0,0E0,0E0,0E0,0E0,0E0,0E0,0E0,0E0,0E0,0E0,0E0,0E0,0E0,0E0,0E0,0E0,0E0,0E0,0E0,0E0,0E0,0E0,0E0,0E0,0E0,0E0,0E0],"parents":[2147483647,0,0,1,1,2,2,3,3,4,4,5,5,6,6,7,7,8,8,9,9,10,10,11,11,12,12,13,13,14,14,15,15,16,16,17,17,18,18,19,19,20,20,21,21,22,22,23,23,24,24,25,25,26,26,27,27,28,28,29,29,30,30,31,31,32,32,33,33,34,34,35,35,36,36,37,37,38,38,39,39,40,40,41,41,42,42,43,43,44,44,45,45,46,46,47,47,48,48,49,49,50,50,51,51,52,52,54,54,55,55,56,56,57,57,58,58,59,59,60,60,61,61,62,62],"right_children":[2,4,6,8,10,12,14,16,18,20,22,24,26,28,30,32,34,36,38,40,42,44,46,48,50,52,54,56,58,60,62,64,66,68,70,72,74,76,78,80,82,84,86,88,90,92,94,96,98,100,102,104,106,-1,108,110,112,114,116,118,120,122,124,-1,-1,-1,-1,-1,-1,-1,-1,-1,-1,-1,-1,-1,-1,-1,-1,-1,-1,-1,-1,-1,-1,-1,-1,-1,-1,-1,-1,-1,-1,-1,-1,-1,-1,-1,-1,-1,-1,-1,-1,-1,-1,-1,-1,-1,-1,-1,-1,-1,-1,-1,-1,-1,-1,-1,-1,-1,-1,-1,-1,-1,-1],"split_conditions":[2.9E1,1E0,1E0,1E0,2E0,1E0,9E0,2.4E1,2.5E1,2.3E1,2.7E1,4E1,4.4E1,3.5E1,3.6E1,1E0,3E0,5E0,2.7E1,1E0,1E0,1E0,1E0,2E1,7.3E1,2E0,5.7E1,1E0,2E0,1E0,1E0,6E0,3E0,2.6E1,2.6E1,4E0,2.3E1,1E0,1E0,2.2E1,1E0,1E0,1E0,3E1,1.6E1,1E0,3E0,1E0,3.2E1,1E0,8.7E1,3.2E1,1E0,2.8648674E-1,6E1,3.2E1,3.3E1,1E0,5E0,2.9E1,3E1,4.2E1,5.8E1,-2.0657933E-1,-1.0029653E-1,-1.2965858E-1,-5.6045916E-2,-1.2564822E-1,-9.39158E-2,-7.388305E-2,-9.971494E-3,-3.8006023E-2,-2.9833677E-1,-3.1740763E-3,1.0264593E-1,1.1865173E-1,3.787748E-2,-3.909603E-3,5.8098774E-2,-1.1629342E-1,-7.921703E-2,-3.8175453E-2,4.6582542E-2,-1.627488E-2,-7.319889E-2,3.7056427E-2,9.4253615E-2,-8.288783E-3,3.6598563E-2,4.1081063E-2,8.8025704E-2,7.627478E-2,3.820335E-2,1.7801157E-1,8.728518E-2,-4.660007E-2,-8.59982E-3,-6.0502817E-3,7.2714254E-2,3.7856553E-2,1.0325771E-1,-2.1877064E-1,9.5378496E-2,4.7277853E-2,8.7312326E-2,9.2461884E-2,1.6344407E-1,-1.2867452E-1,1.5139528E-1,2.2378193E-2,4.8321474E-2,8.402638E-2,1.510888E-1,7.221356E-2,1.5696758E-1,1.6206975E-1,1.1281302E-1,7.762243E-2,1.2636445E-1,8.368246E-2,1.678423E-1,1.3103336E-1,1.9201367E-1,2.1890493E-1,5.979973E-2],"split_indices":[1,0,0,3,4,3,4,1,1,1,1,1,1,1,1,2,4,4,1,3,3,3,3,4,1,4,1,3,4,3,3,4,4,1,1,4,1,2,2,1,2,4,4,4,4,2,4,2,1,2,1,1,2,0,1,1,1,3,4,4,1,1,1,0,0,0,0,0,0,0,0,0,0,0,0,0,0,0,0,0,0,0,0,0,0,0,0,0,0,0,0,0,0,0,0,0,0,0,0,0,0,0,0,0,0,0,0,0,0,0,0,0,0,0,0,0,0,0,0,0,0,0,0,0,0],"split_type":[0,0,0,0,0,0,0,0,0,0,0,0,0,0,0,0,0,0,0,0,0,0,0,0,0,0,0,0,0,0,0,0,0,0,0,0,0,0,0,0,0,0,0,0,0,0,0,0,0,0,0,0,0,0,0,0,0,0,0,0,0,0,0,0,0,0,0,0,0,0,0,0,0,0,0,0,0,0,0,0,0,0,0,0,0,0,0,0,0,0,0,0,0,0,0,0,0,0,0,0,0,0,0,0,0,0,0,0,0,0,0,0,0,0,0,0,0,0,0,0,0,0,0,0,0],"sum_hessian":[1.2513436E4,6.125431E3,6.388005E3,3.0368408E3,3.08859E3,2.7978845E3,3.5901204E3,2.8030613E3,2.3377957E2,1.8901866E3,1.1984034E3,2.5573943E3,2.4049036E2,2.5739138E3,1.0162065E3,9.1557733E2,1.887484E3,1.03809906E2,1.2996967E2,2.7538278E2,1.6148038E3,7.564731E2,4.4193042E2,2.152811E3,4.045832E2,2.2528818E2,1.5202171E1,1.7114159E3,8.624979E2,6.047898E2,4.1141672E2,6.10637E2,3.049403E2,1.4505011E3,4.3698288E2,6.270823E1,4.1101677E1,5.905004E1,7.0919624E1,2.4139958E2,3.398322E1,1.3852544E3,2.2954938E2,5.7023645E2,1.8623662E2,3.2594717E2,1.15983246E2,1.947604E3,2.0520708E2,3.941959E2,1.0387295E1,1.0788156E2,1.17406624E2,1.1438997E1,3.7631733E0,1.4348179E3,2.7659808E2,5.909461E2,2.7155176E2,4.2912808E2,1.756617E2,2.921353E2,1.1928138E2,5.0905255E2,1.0158446E2,2.3539522E2,6.95451E1,5.2223035E2,9.2827075E2,1.5328331E2,2.8369955E2,6.1506413E1,1.2018179E0,2.2717033E1,1.8384642E1,1.9692257E1,3.9357784E1,2.9763943E1,4.1155685E1,1.4192986E2,9.946973E1,1.8562614E1,1.5420602E1,1.2991595E3,8.609488E1,2.1765056E2,1.1898817E1,4.1971048E2,1.5052599E2,9.238597E1,9.385064E1,1.8480405E2,1.4114313E2,1.0495395E1,1.0548785E2,9.970562E2,9.505478E2,7.2267876E1,1.329392E2,2.5675208E2,1.3744383E2,8.5148E0,1.8724947E0,4.7477253E1,6.040431E1,5.4393215E1,6.3013405E1,1.1994905E0,2.5636828E0,8.389437E2,5.958741E2,2.1184575E2,6.4752335E1,5.1762213E2,7.3324E1,1.6982816E2,1.0172362E2,2.235793E2,2.055488E2,2.9278677E1,1.4638303E2,1.6498679E2,1.2714853E2,1.1626091E2,3.0204718E0],"tree_param":{"num_deleted":"0","num_feature":"5","num_nodes":"125","size_leaf_vector":"1"}},{"base_weights":[2.4643494E-4,-1.4292048E-1,1.0347506E-1,-2.7523553E-1,-1.4619337E-2,-1.2288171E-2,1.9602202E-1,-5.100738E-1,-2.3061877E-1,-7.062728E-2,7.4793436E-2,-8.524475E-2,9.09362E-2,1.48217E-1,3.7211457E-1,-5.967267E-1,-2.7505112E-1,-2.7604318E-1,-4.80935E-2,-2.1502377E-1,-4.126993E-2,-2.2221912E-2,1.1864216E-1,-1.5681496E-1,6.683606E-3,3.694944E-2,2.199935E-1,1.2614961E-1,4.09311E-1,2.6101622E-1,4.6085927E-1,-6.5028995E-1,-2.2317341E-1,-3.1951976E-1,9.8638676E-2,-2.9638958E-1,2.862307E-2,-1.3306624E-1,4.7935925E-2,-2.4619958E-1,1.5405734E-3,-6.231857E-2,8.951647E-2,6.4265966E-1,-3.5798185E-2,8.128326E-2,2.3583E-1,-1.7896463E-1,1.3508877E-1,-6.641822E-2,8.504073E-2,1.061008E-2,2.4202462E-1,1.5647483E-1,3.401891E-1,9.889837E-2,2.696533E-1,4.3749157E-1,-3.3612865E-1,1.7551829E-1,3.0025303E-1,4.35461E-1,6.231457E-1,-2.0147474E-1,-9.274776E-2,-9.7630724E-2,6.182537E-2,-1.5966822E-1,-7.347109E-2,9.422717E-2,-1.8702857E-2,-1.0858175E-1,-6.690017E-2,1.695851E-2,-2.713141E-1,-6.111725E-2,2.3073941E-2,-8.475637E-3,3.974671E-2,-8.785271E-3,-7.905308E-2,-2.7300961E-2,3.3777423E-2,-1.46778785E-2,-7.999016E-2,2.0079933E-2,1.3859819E-1,1.3839932E-3,2.601479E-1,-2.4548832E-2,1.9864524E-2,1.7718855E-2,4.534367E-2,4.610446E-2,9.4970934E-2,-6.922792E-2,-4.1028053E-2,7.086764E-2,-1.0573054E-2,-2.7939016E-2,1.00775935E-1,2.874475E-2,-2.2109883E-1,-1.0917679E-2,2.3898859E-2,1.3793452E-2,9.906388E-2,4.059059E-2,1.4231215E-1,3.6783956E-2,1.3226129E-1,3.1584088E-2,-6.56826E-2,5.0601337E-2,1.16499625E-1,1.2344538E-1,3.0070084E-1,-2.447932E-1,7.9763355E-3,9.3927465E-2,2.3503346E-2,7.1741536E-2,1.2844133E-1,1.1600609E-1,1.6297147E-1,1.9287959E-1,-7.931862E-2],"categories":[],"categories_nodes":[],"categories_segments":[],"categories_sizes":[],"default_left":[0,0,0,0,0,0,0,0,0,0,0,0,0,0,0,0,0,0,0,0,0,0,0,0,0,0,0,0,0,0,0,0,0,0,0,0,0,0,0,0,0,0,0,0,0,0,0,0,0,0,0,0,0,0,0,0,0,0,0,0,0,0,0,0,0,0,0,0,0,0,0,0,0,0,0,0,0,0,0,0,0,0,0,0,0,0,0,0,0,0,0,0,0,0,0,0,0,0,0,0,0,0,0,0,0,0,0,0,0,0,0,0,0,0,0,0,0,0,0,0,0,0,0,0,0,0,0],"id":5,"left_children":[1,3,5,7,9,11,13,15,17,19,21,23,25,27,29,31,33,35,37,39,41,43,45,47,49,51,53,55,57,59,61,63,65,67,69,71,73,75,77,79,81,83,85,87,89,91,93,95,97,99,101,103,105,107,109,111,113,115,117,119,121,123,125,-1,-1,-1,-1,-1,-1,-1,-1,-1,-1,-1,-1,-1,-1,-1,-1,-1,-1,-1,-1,-1,-1,-1,-1,-1,-1,-1,-1,-1,-1,-1,-1,-1,-1,-1,-1,-1,-1,-1,-1,-1,-1,-1,-1,-1,-1,-1,-1,-1,-1,-1,-1,-1,-1,-1,-1,-1,-1,-1,-1,-1,-1,-1,-1],"loss_changes":[1.8001256E2,8.6625725E1,7.5825676E1,2.6204025E1,1.2984885E1,2.3694098E1,3.305423E1,7.987259E0,1.7505005E1,6.748829E0,4.2512207E0,1.2128736E1,9.069823E0,1.7780739E1,8.1528015E0,5.689026E0,1.8540573E0,1.0494751E1,3.4519434E0,1.8172741E0,3.6559753E0,2.8368719E0,2.9928885E0,6.7254295E0,4.633051E0,4.9660006E0,2.8790932E0,1.1139217E1,5.2045784E0,1.2050629E0,1.646019E0,1.6408844E0,1.7390392E0,1.4290009E0,4.5061433E-1,7.548111E0,2.8320544E0,3.343395E0,1.2854725E0,8.756304E-1,3.6848825E-1,3.1139288E0,1.5188309E0,8.9707804E-1,1.4443955E0,8.0329084E-1,1.0509434E0,2.0752544E0,1.277411E0,4.5289984E0,3.5281346E0,2.6519666E0,1.7941041E0,1.6396408E0,2.8362732E0,4.8936195E0,5.388588E0,3.0017738E0,1.6465244E0,1.5843189E0,1.8951683E0,1.9217834E0,1.2347069E0,0E0,0E0,0E0,0E0,0E0,0E0,0E0,0E0,0E0,0E0,0E0,0E0,0E0,0E0,0E0,0E0,0E0,0E0,0E0,0E0,0E0,0E0,0E0,0E0,0E0,0E0,0E0,0E0,0E0,0E0,0E0,0E0,0E0,0E0,0E0,0E0,0E0,0E0,0E0,0E0,0E0,0E0,0E0,0E0,0E0,0E0,0E0,0E0,0E0,0E0,0E0,0E0,0E0,0E0,0E0,0E0,0E0,0E0,0E0,0E0,0E0,0E0,0E0,0E0],"parents":[2147483647,0,0,1,1,2,2,3,3,4,4,5,5,6,6,7,7,8,8,9,9,10,10,11,11,12,12,13,13,14,14,15,15,16,16,17,17,18,18,19,19,20,20,21,21,22,22,23,23,24,24,25,25,26,26,27,27,28,28,29,29,30,30,31,31,32,32,33,33,34,34,35,35,36,36,37,37,38,38,39,39,40,40,41,41,42,42,43,43,44,44,45,45,46,46,47,47,48,48,49,49,50,50,51,51,52,52,53,53,54,54,55,55,56,56,57,57,58,58,59,59,60,60,61,61,62,62],"right_children":[2,4,6,8,10,12,14,16,18,20,22,24,26,28,30,32,34,36,38,40,42,44,46,48,50,52,54,56,58,60,62,64,66,68,70,72,74,76,78,80,82,84,86,88,90,92,94,96,98,100,102,104,106,108,110,112,114,116,118,120,122,124,126,-1,-1,-1,-1,-1,-1,-1,-1,-1,-1,-1,-1,-1,-1,-1,-1,-1,-1,-1,-1,-1,-1,-1,-1,-1,-1,-1,-1,-1,-1,-1,-1,-1,-1,-1,-1,-1,-1,-1,-1,-1,-1,-1,-1,-1,-1,-1,-1,-1,-1,-1,-1,-1,-1,-1,-1,-1,-1,-1,-1,-1,-1,-1,-1],"split_conditions":[2.8E1,1E0,1E0,2.2E1,2E0,1E0,1.5E1,1E0,5E0,2.3E1,2.4E1,3.3E1,3.7E1,4.2E1,3.3E1,1.5E1,1E0,1E0,2E1,1E0,1E0,1.7E1,1E0,1E0,1E0,1E0,1E0,1E0,7.3E1,2.5E1,4.7E1,1E0,1E0,2E1,3E0,1E0,4E0,2.7E1,1E0,1.9E1,1E0,1E0,1E0,1.1E1,1E0,3E1,1.6E1,3E1,3.1E1,4.8E1,6.9E1,9E0,3E1,5.8E1,4E0,1.2E1,3.2E1,5.8E1,8E1,3E1,1E0,1E0,8.9E1,-2.0147474E-1,-9.274776E-2,-9.7630724E-2,6.182537E-2,-1.5966822E-1,-7.347109E-2,9.422717E-2,-1.8702857E-2,-1.0858175E-1,-6.690017E-2,1.695851E-2,-2.713141E-1,-6.111725E-2,2.3073941E-2,-8.475637E-3,3.974671E-2,-8.785271E-3,-7.905308E-2,-2.7300961E-2,3.3777423E-2,-1.46778785E-2,-7.999016E-2,2.0079933E-2,1.3859819E-1,1.3839932E-3,2.601479E-1,-2.4548832E-2,1.9864524E-2,1.7718855E-2,4.534367E-2,4.610446E-2,9.4970934E-2,-6.922792E-2,-4.1028053E-2,7.086764E-2,-1.0573054E-2,-2.7939016E-2,1.00775935E-1,2.874475E-2,-2.2109883E-1,-1.0917679E-2,2.3898859E-2,1.3793452E-2,9.906388E-2,4.059059E-2,1.4231215E-1,3.6783956E-2,1.3226129E-1,3.1584088E-2,-6.56826E-2,5.0601337E-2,1.16499625E-1,1.2344538E-1,3.0070084E-1,-2.447932E-1,7.9763355E-3,9.3927465E-2,2.3503346E-2,7.1741536E-2,1.2844133E-1,1.1600609E-1,1.6297147E-1,1.9287959E-1,-7.931862E-2],"split_indices":[1,0,0,1,4,4,4,2,4,1,1,1,1,1,1,4,3,3,4,3,3,1,3,3,2,3,2,3,1,4,1,3,3,1,4,2,4,1,2,1,2,4,4,4,2,4,4,1,1,1,1,4,1,1,4,4,1,1,1,1,3,3,1,0,0,0,0,0,0,0,0,0,0,0,0,0,0,0,0,0,0,0,0,0,0,0,0,0,0,0,0,0,0,0,0,0,0,0,0,0,0,0,0,0,0,0,0,0,0,0,0,0,0,0,0,0,0,0,0,0,0,0,0,0,0,0,0],"split_type":[0,0,0,0,0,0,0,0,0,0,0,0,0,0,0,0,0,0,0,0,0,0,0,0,0,0,0,0,0,0,0,0,0,0,0,0,0,0,0,0,0,0,0,0,0,0,0,0,0,0,0,0,0,0,0,0,0,0,0,0,0,0,0,0,0,0,0,0,0,0,0,0,0,0,0,0,0,0,0,0,0,0,0,0,0,0,0,0,0,0,0,0,0,0,0,0,0,0,0,0,0,0,0,0,0,0,0,0,0,0,0,0,0,0,0,0,0,0,0,0,0,0,0,0,0,0,0],"sum_hessian":[1.2178355E4,5.102021E3,7.0763345E3,2.511157E3,2.590864E3,3.1442222E3,3.9321123E3,3.9925644E2,2.1119006E3,1.593137E3,9.9772705E2,1.842301E3,1.3019213E3,3.094004E3,8.3810834E2,2.905803E2,1.0867615E2,1.6906439E3,4.2125662E2,2.68107E2,1.32503E3,3.1072995E2,6.8699713E2,1.0354514E3,8.068496E2,9.1884143E2,3.830799E2,2.854249E3,2.3975497E2,3.7393057E2,4.6417773E2,2.5349171E2,3.7088593E1,9.7248634E1,1.1427513E1,1.5848318E3,1.0581208E2,2.2329012E2,1.979665E2,2.3424858E2,3.385841E1,1.1417942E3,1.8323581E2,5.2906322E0,3.0543933E2,5.222121E2,1.6478503E2,9.627823E2,7.2669075E1,4.175016E2,3.89348E2,8.151919E2,1.03649536E2,2.5213713E2,1.3094276E2,2.4001514E3,4.540976E2,2.3141951E2,8.335471E0,1.1934601E2,2.5458458E2,4.0454822E2,5.9629517E1,2.376872E2,1.5804506E1,3.0148228E1,6.9403634E0,2.3662176E1,7.358646E1,4.4802337E0,6.9472795E0,8.3505023E2,7.497816E2,1.03651375E2,2.1607075E0,1.6709317E2,5.619695E1,1.0448465E2,9.348186E1,1.7511284E1,2.1673729E2,1.8566563E1,1.5291846E1,1.0727198E3,6.907439E1,1.7387352E2,9.362278E0,1.6426479E0,3.6479845E0,2.1060588E2,9.483345E1,3.9759763E2,1.2461446E2,8.311914E1,8.166589E1,4.3026965E2,5.3251263E2,4.5353237E1,2.7315842E1,3.9222943E2,2.5272182E1,3.8518256E2,4.1654577E0,4.8532047E2,3.298714E2,3.2630928E1,7.101861E1,2.3772937E2,1.4407758E1,4.2125774E1,8.881699E1,2.353563E3,4.6588432E1,2.4664871E2,2.074489E2,2.2288573E2,8.533784E0,3.0503888E0,5.285082E0,4.8483616E1,7.086239E1,1.7420438E2,8.03802E1,2.8166837E2,1.22879875E2,5.8598763E1,1.0307554E0],"tree_param":{"num_deleted":"0","num_feature":"5","num_nodes":"127","size_leaf_vector":"1"}},{"base_weights":[1.590505E-4,-8.133131E-2,1.00609854E-1,-1.7827512E-1,5.179342E-3,4.6024293E-2,2.1326125E-1,-2.8619727E-1,-1.0925214E-1,-3.6173284E-2,6.988375E-2,-2.1102069E-2,1.0922048E-1,1.6748022E-1,3.8815033E-1,-3.417932E-1,-1.3029695E-1,-1.2948427E-1,1.1608431E-1,-1.549811E-1,-1.9345134E-2,2.7464975E-2,1.21772915E-1,-3.4950655E-2,1.8595293E-1,8.433887E-2,2.378236E-1,7.711124E-2,2.3294505E-1,3.278809E-1,5.544264E-1,-5.3988636E-1,-3.0374306E-1,-1.8648411E-1,-1.16532855E-2,-1.7409064E-1,-4.1310355E-2,1.6941754E-2,1.3343275E-1,-1.7796806E-1,1.3157387E-3,-3.3185437E-2,6.406436E-2,-1.5594936E-3,1.1911194E-1,2.2818924E-1,1.0136941E-1,-8.605534E-2,1.7565938E-2,1.4106528E-1,6.2704986E-1,6.923974E-2,1.7941047E-1,1.9211721E-1,4.245457E-1,4.021034E-2,1.7220782E-1,1.5823594E-1,3.1044653E-1,3.6491534E-1,2.4002197E-1,5.870918E-1,9.238838E-2,-1.7816383E-1,-1.0748486E-1,-9.701752E-2,-4.1600685E-3,-9.5244646E-2,-3.5773754E-2,-5.487821E-2,1.1339008E-2,-6.290731E-2,-4.23923E-2,-3.1973287E-2,1.2731194E-2,5.0214846E-2,-4.920111E-2,7.6035745E-2,2.6575468E-2,-6.621498E-2,-3.4831733E-2,-4.1572753E-2,1.9366464E-2,-2.4972754E-2,-6.0333535E-3,4.3435007E-2,6.099732E-3,1.0861327E-1,-2.512074E-3,-5.438457E-3,4.1772E-2,3.961724E-2,1.0204471E-1,1.2046107E-2,4.7967948E-2,-4.2548478E-2,-1.0057136E-2,7.049767E-3,-1.6045184E-1,4.6769433E-2,-1.22162804E-1,1.2590927E-1,2.6126817E-1,1.0189413E-2,3.0927656E-2,3.1963445E-2,1.01084426E-1,3.7046168E-2,1.0659016E-1,1.4367798E-1,-2.2228982E-1,-4.7143072E-5,2.999857E-2,5.6176648E-2,-1.5911517E-1,6.5065265E-2,2.20633E-2,8.268651E-2,1.4840038E-1,9.323282E-2,1.3866277E-1,9.02594E-2,4.9953703E-2,1.6570807E-1,2.9002494E-1,-2.3175244E-1,1.5565804E-1],"categories":[],"categories_nodes":[],"categories_segments":[],"categories_sizes":[],"default_left":[0,0,0,0,0,0,0,0,0,0,0,0,0,0,0,0,0,0,0,0,0,0,0,0,0,0,0,0,0,0,0,0,0,0,0,0,0,0,0,0,0,0,0,0,0,0,0,0,0,0,0,0,0,0,0,0,0,0,0,0,0,0,0,0,0,0,0,0,0,0,0,0,0,0,0,0,0,0,0,0,0,0,0,0,0,0,0,0,0,0,0,0,0,0,0,0,0,0,0,0,0,0,0,0,0,0,0,0,0,0,0,0,0,0,0,0,0,0,0,0,0,0,0,0,0,0,0],"id":6,"left_children":[1,3,5,7,9,11,13,15,17,19,21,23,25,27,29,31,33,35,37,39,41,43,45,47,49,51,53,55,57,59,61,63,65,67,69,71,73,75,77,79,81,83,85,87,89,91,93,95,97,99,101,103,105,107,109,111,113,115,117,119,121,123,125,-1,-1,-1,-1,-1,-1,-1,-1,-1,-1,-1,-1,-1,-1,-1,-1,-1,-1,-1,-1,-1,-1,-1,-1,-1,-1,-1,-1,-1,-1,-1,-1,-1,-1,-1,-1,-1,-1,-1,-1,-1,-1,-1,-1,-1,-1,-1,-1,-1,-1,-1,-1,-1,-1,-1,-1,-1,-1,-1,-1,-1,-1,-1,-1],"loss_changes":[9.7591156E1,5.520396E1,3.2825447E1,2.3090591E1,9.311964E0,1.5266303E1,1.3887459E1,1.0444679E1,8.653456E0,4.2421913E0,2.9833727E0,5.0120907E0,5.9109116E0,8.16296E0,3.4336395E0,6.5552826E0,2.1292763E0,6.833111E0,2.6715016E-1,9.461956E-1,2.150519E0,1.9895782E0,1.3014383E0,4.3951855E0,2.0815232E0,2.2191877E0,2.4781265E0,2.0368793E0,4.591202E0,7.8196144E-1,1.3724899E0,1.1830597E0,4.267807E0,1.8727322E0,8.8625044E-1,1.3178749E0,3.2052093E0,6.9363636E-1,6.9432306E-1,5.814061E-1,3.163755E-1,1.0433859E0,9.332005E-1,1.4127803E0,4.9947333E-1,1.0028291E0,1.8339357E0,2.4266114E0,2.6615682E0,8.8293815E-1,1.3163424E-1,1.6004238E0,2.4026146E0,2.675005E0,4.040696E0,1.0158153E0,1.8174925E0,2.0210476E0,2.3806E0,8.364849E-1,3.1739283E-1,6.2773514E-1,3.140923E0,0E0,0E0,0E0,0E0,0E0,0E0,0E0,0E0,0E0,0E0,0E0,0E0,0E0,0E0,0E0,0E0,0E0,0E0,0E0,0E0,0E0,0E0,0E0,0E0,0E0,0E0,0E0,0E0,0E0,0E0,0E0,0E0,0E0,0E0,0E0,0E0,0E0,0E0,0E0,0E0,0E0,0E0,0E0,0E0,0E0,0E0,0E0,0E0,0E0,0E0,0E0,0E0,0E0,0E0,0E0,0E0,0E0,0E0,0E0,0E0,0E0,0E0,0E0,0E0],"parents":[2147483647,0,0,1,1,2,2,3,3,4,4,5,5,6,6,7,7,8,8,9,9,10,10,11,11,12,12,13,13,14,14,15,15,16,16,17,17,18,18,19,19,20,20,21,21,22,22,23,23,24,24,25,25,26,26,27,27,28,28,29,29,30,30,31,31,32,32,33,33,34,34,35,35,36,36,37,37,38,38,39,39,40,40,41,41,42,42,43,43,44,44,45,45,46,46,47,47,48,48,49,49,50,50,51,51,52,52,53,53,54,54,55,55,56,56,57,57,58,58,59,59,60,60,61,61,62,62],"right_children":[2,4,6,8,10,12,14,16,18,20,22,24,26,28,30,32,34,36,38,40,42,44,46,48,50,52,54,56,58,60,62,64,66,68,70,72,74,76,78,80,82,84,86,88,90,92,94,96,98,100,102,104,106,108,110,112,114,116,118,120,122,124,126,-1,-1,-1,-1,-1,-1,-1,-1,-1,-1,-1,-1,-1,-1,-1,-1,-1,-1,-1,-1,-1,-1,-1,-1,-1,-1,-1,-1,-1,-1,-1,-1,-1,-1,-1,-1,-1,-1,-1,-1,-1,-1,-1,-1,-1,-1,-1,-1,-1,-1,-1,-1,-1,-1,-1,-1,-1,-1,-1,-1,-1,-1,-1,-1],"split_conditions":[3E1,1E0,4E0,2.5E1,2E0,1E0,1E0,3E0,1E0,2.3E1,2.7E1,1E0,3.9E1,1E0,3.9E1,2.1E1,3E1,1E0,2.6E1,1E0,1E0,1E0,3E0,3.4E1,4.2E1,1E0,2E0,3.9E1,3.5E1,3.5E1,5.7E1,1E0,1E0,2.2E1,2.1E1,1E0,1E0,1E0,2.7E1,2.2E1,2.1E1,2.5E1,1E0,1.8E1,2.1E1,1E0,1.5E1,1E0,7.1E1,4.1E1,4.6E1,1E0,3.4E1,4.5E1,5.5E1,1E0,7.6E1,1E0,4.7E1,3.3E1,2.6E1,5.2E1,6E1,-1.7816383E-1,-1.0748486E-1,-9.701752E-2,-4.1600685E-3,-9.5244646E-2,-3.5773754E-2,-5.487821E-2,1.1339008E-2,-6.290731E-2,-4.23923E-2,-3.1973287E-2,1.2731194E-2,5.0214846E-2,-4.920111E-2,7.6035745E-2,2.6575468E-2,-6.621498E-2,-3.4831733E-2,-4.1572753E-2,1.9366464E-2,-2.4972754E-2,-6.0333535E-3,4.3435007E-2,6.099732E-3,1.0861327E-1,-2.512074E-3,-5.438457E-3,4.1772E-2,3.961724E-2,1.0204471E-1,1.2046107E-2,4.7967948E-2,-4.2548478E-2,-1.0057136E-2,7.049767E-3,-1.6045184E-1,4.6769433E-2,-1.22162804E-1,1.2590927E-1,2.6126817E-1,1.0189413E-2,3.0927656E-2,3.1963445E-2,1.01084426E-1,3.7046168E-2,1.0659016E-1,1.4367798E-1,-2.2228982E-1,-4.7143072E-5,2.999857E-2,5.6176648E-2,-1.5911517E-1,6.5065265E-2,2.20633E-2,8.268651E-2,1.4840038E-1,9.323282E-2,1.3866277E-1,9.02594E-2,4.9953703E-2,1.6570807E-1,2.9002494E-1,-2.3175244E-1,1.5565804E-1],"split_indices":[1,0,4,1,4,0,3,4,3,1,1,3,1,0,1,1,4,4,1,3,3,3,4,1,1,3,4,1,1,1,1,2,3,1,1,2,2,4,1,1,1,1,2,1,1,2,4,2,1,1,1,2,1,1,1,2,1,2,1,1,4,1,1,0,0,0,0,0,0,0,0,0,0,0,0,0,0,0,0,0,0,0,0,0,0,0,0,0,0,0,0,0,0,0,0,0,0,0,0,0,0,0,0,0,0,0,0,0,0,0,0,0,0,0,0,0,0,0,0,0,0,0,0,0,0,0,0],"split_type":[0,0,0,0,0,0,0,0,0,0,0,0,0,0,0,0,0,0,0,0,0,0,0,0,0,0,0,0,0,0,0,0,0,0,0,0,0,0,0,0,0,0,0,0,0,0,0,0,0,0,0,0,0,0,0,0,0,0,0,0,0,0,0,0,0,0,0,0,0,0,0,0,0,0,0,0,0,0,0,0,0,0,0,0,0,0,0,0,0,0,0,0,0,0,0,0,0,0,0,0,0,0,0,0,0,0,0,0,0,0,0,0,0,0,0,0,0,0,0,0,0,0,0,0,0,0,0],"sum_hessian":[1.1920048E4,6.5812344E3,5.3388135E3,3.1029778E3,3.4782566E3,3.5971921E3,1.7416212E3,1.2091862E3,1.8937916E3,2.122321E3,1.3559355E3,1.7446783E3,1.8525138E3,1.3818497E3,3.5977155E2,8.9044885E2,3.187373E2,1.7381545E3,1.5563708E2,2.6229456E2,1.8600264E3,7.468906E2,6.090449E2,1.6360824E3,1.0859591E2,1.5535878E3,2.98926E2,5.814215E2,8.004282E2,2.662403E2,9.353126E1,1.4135442E2,7.490945E2,2.1591339E2,1.02823906E2,1.1535897E3,5.845648E2,2.347264E1,1.3216446E2,2.2854347E2,3.3751087E1,1.5958293E3,2.6419702E2,5.679915E2,1.7889914E2,9.634821E1,5.126967E2,8.288639E2,8.072185E2,9.976342E1,8.832487E0,1.3421566E3,2.1143112E2,2.4177296E2,5.7153015E1,4.199058E2,1.615157E2,4.0910498E2,3.913232E2,1.8507407E2,8.1166214E1,8.710257E1,6.4286847E0,1.0720945E2,3.4144966E1,7.0143365E2,4.7660816E1,7.197168E1,1.4394171E2,2.2431458E1,8.039245E1,5.50444E2,6.0314575E2,3.2837723E2,2.561876E2,1.2857584E1,1.0615056E1,3.4686554E1,9.74779E1,1.3363216E2,9.491132E1,1.0136591E1,2.3614496E1,3.293788E2,1.2664506E3,9.2026596E1,1.7217043E2,9.489591E0,5.585019E2,2.289466E1,1.5600449E2,5.3010998E1,4.333722E1,2.5140924E2,2.6128748E2,4.0120425E2,4.2765964E2,7.995877E2,7.6307645E0,9.783235E1,1.9310657E0,6.244046E0,2.5884411E0,6.5824915E2,6.839075E2,1.4571162E2,6.571949E1,1.7143098E2,7.034198E1,5.516805E1,1.9849656E0,2.5125365E2,1.6865215E2,1.5884709E2,2.668608E0,2.4079529E2,1.683097E2,3.312084E2,6.011482E1,1.2160246E2,6.347161E1,4.2717117E1,3.8449097E1,8.20513E1,5.051269E0,1.8550991E0,4.5735855E0],"tree_param":{"num_deleted":"0","num_feature":"5","num_nodes":"127","size_leaf_vector":"1"}},{"base_weights":[1.955395E-4,-4.6035666E-2,9.6967585E-2,-1.1559748E-1,1.3268743E-2,3.5551865E-2,1.7314251E-1,-2.0166029E-1,-5.899195E-2,-3.8158249E-3,9.0907186E-2,-1.0479196E-2,8.183351E-2,1.3922165E-1,3.3402115E-1,-2.2416477E-1,3.3676237E-2,-1.10362515E-1,-9.788321E-3,-8.329865E-2,1.1960158E-2,7.3175356E-2,1.5755674E-1,-2.3156783E-2,1.9565263E-1,6.902715E-2,2.6529735E-1,7.377815E-2,1.9290257E-1,2.6087126E-1,4.4986388E-1,-3.466418E-1,-1.8757422E-1,-8.717079E-3,2.1036412E-1,-1.4961706E-1,-1.6849536E-2,-2.9153401E-2,1.5250257E-1,-1.1909723E-1,-5.9164886E-4,-5.7604136E-3,8.030271E-2,6.1377488E-2,1.00923024E-1,-6.973658E-2,2.1616846E-1,-3.108258E-2,1.7449664E-1,1.6353574E-1,2.3153667E-1,1.4736218E-2,1.2054786E-1,3.7061766E-1,-3.0628437E-2,4.5631316E-2,1.652534E-1,1.745811E-1,3.91193E-1,3.3157146E-1,1.4506133E-1,4.6291527E-1,-5.612592E-2,-1.2891755E-1,-4.1052077E-2,-6.099346E-2,1.2282871E-3,-5.447108E-2,5.966624E-3,1.2488304E-1,-1.37372E-2,-6.884488E-2,-3.950698E-2,-1.4332975E-2,6.340853E-2,-1.302387E-2,3.485985E-2,3.2553043E-2,1.2487003E-1,-7.6910906E-2,-2.211613E-2,1.6048647E-1,-1.4420437E-2,-5.980169E-3,3.028392E-3,4.49508E-2,1.6725432E-2,-9.0263814E-2,1.9117884E-2,1.3596186E-1,1.7921876E-2,5.8852445E-2,-1.2245788E-1,3.214254E-2,8.941955E-2,-2.2651376E-2,5.3154966E-3,8.85183E-2,-1.0287326E-1,6.520151E-2,-4.2216443E-3,-3.9319936E-3,9.593157E-2,5.060804E-3,5.8277033E-2,6.486366E-2,2.1201898E-1,-1.7158425E-1,1.17813416E-1,2.1705251E-2,-7.604634E-2,1.7638806E-1,4.0994268E-2,3.9022185E-2,6.182212E-2,1.3646661E-1,-1.4231148E-1,5.9318945E-2,1.1311031E-1,5.008142E-3,7.978896E-2,1.6374318E-1,1.0537698E-1],"categories":[],"categories_nodes":[],"categories_segments":[],"categories_sizes":[],"default_left":[0,0,0,0,0,0,0,0,0,0,0,0,0,0,0,0,0,0,0,0,0,0,0,0,0,0,0,0,0,0,0,0,0,0,0,0,0,0,0,0,0,0,0,0,0,0,0,0,0,0,0,0,0,0,0,0,0,0,0,0,0,0,0,0,0,0,0,0,0,0,0,0,0,0,0,0,0,0,0,0,0,0,0,0,0,0,0,0,0,0,0,0,0,0,0,0,0,0,0,0,0,0,0,0,0,0,0,0,0,0,0,0,0,0,0,0,0,0,0,0,0,0,0],"id":7,"left_children":[1,3,5,7,9,11,13,15,17,19,21,23,25,27,29,31,33,35,37,39,41,43,45,47,49,51,53,55,57,59,61,63,65,67,69,71,73,75,77,79,81,83,85,87,89,91,93,95,97,99,-1,101,103,105,107,109,111,113,115,117,119,121,-1,-1,-1,-1,-1,-1,-1,-1,-1,-1,-1,-1,-1,-1,-1,-1,-1,-1,-1,-1,-1,-1,-1,-1,-1,-1,-1,-1,-1,-1,-1,-1,-1,-1,-1,-1,-1,-1,-1,-1,-1,-1,-1,-1,-1,-1,-1,-1,-1,-1,-1,-1,-1,-1,-1,-1,-1,-1,-1,-1,-1],"loss_changes":[5.2443848E1,3.272591E1,1.7723083E1,1.7772865E1,5.6812463E0,4.47327E0,9.183216E0,7.6765594E0,5.568876E0,4.4039693E0,9.0144444E-1,2.7573435E0,2.4414592E0,4.898834E0,2.3722382E0,5.8585663E0,9.550234E-1,3.954547E0,3.5452728E0,1.7220736E0,3.5497646E0,1.9416714E-1,2.1661682E0,1.5614345E0,1.0050821E0,2.739314E0,2.129436E0,1.6192553E0,2.7206745E0,1.4458647E0,1.0204487E0,5.220585E0,3.0772438E0,5.15827E-1,1.319992E0,1.0566845E0,2.267548E0,2.0930214E0,1.350173E0,2.5096812E0,4.518762E0,5.2339983E-1,1.0219128E0,3.867501E-1,2.5995517E0,3.1272602E0,1.1164207E0,2.0733974E0,2.499416E0,5.68565E-1,0E0,4.0664053E0,3.8381844E0,2.4523191E0,4.5241017E0,3.8909612E0,1.7127237E0,9.607353E-1,3.7512388E0,6.101084E-1,1.0965962E0,8.2983017E-1,0E0,0E0,0E0,0E0,0E0,0E0,0E0,0E0,0E0,0E0,0E0,0E0,0E0,0E0,0E0,0E0,0E0,0E0,0E0,0E0,0E0,0E0,0E0,0E0,0E0,0E0,0E0,0E0,0E0,0E0,0E0,0E0,0E0,0E0,0E0,0E0,0E0,0E0,0E0,0E0,0E0,0E0,0E0,0E0,0E0,0E0,0E0,0E0,0E0,0E0,0E0,0E0,0E0,0E0,0E0,0E0,0E0,0E0,0E0,0E0,0E0],"parents":[2147483647,0,0,1,1,2,2,3,3,4,4,5,5,6,6,7,7,8,8,9,9,10,10,11,11,12,12,13,13,14,14,15,15,16,16,17,17,18,18,19,19,20,20,21,21,22,22,23,23,24,24,25,25,26,26,27,27,28,28,29,29,30,30,31,31,32,32,33,33,34,34,35,35,36,36,37,37,38,38,39,39,40,40,41,41,42,42,43,43,44,44,45,45,46,46,47,47,48,48,49,49,51,51,52,52,53,53,54,54,55,55,56,56,57,57,58,58,59,59,60,60,61,61],"right_children":[2,4,6,8,10,12,14,16,18,20,22,24,26,28,30,32,34,36,38,40,42,44,46,48,50,52,54,56,58,60,62,64,66,68,70,72,74,76,78,80,82,84,86,88,90,92,94,96,98,100,-1,102,104,106,108,110,112,114,116,118,120,122,-1,-1,-1,-1,-1,-1,-1,-1,-1,-1,-1,-1,-1,-1,-1,-1,-1,-1,-1,-1,-1,-1,-1,-1,-1,-1,-1,-1,-1,-1,-1,-1,-1,-1,-1,-1,-1,-1,-1,-1,-1,-1,-1,-1,-1,-1,-1,-1,-1,-1,-1,-1,-1,-1,-1,-1,-1,-1,-1,-1,-1],"split_conditions":[3.2E1,1E0,2E0,2.6E1,1E0,1E0,1E0,3E1,1E0,2.4E1,2.1E1,1E0,4.5E1,1E0,3.8E1,2.2E1,2.5E1,3E0,1.5E1,1E0,6E0,4E0,2.4E1,4.9E1,4.6E1,1E0,5.2E1,2.6E1,4.7E1,3.5E1,6.7E1,1E0,1E0,2E1,1E0,2.7E1,1E0,1E0,3.1E1,2.1E1,2E1,2.8E1,1.1E1,1.8E1,5E0,1E0,1E0,1E0,7.1E1,3.9E1,2.3153667E-1,1E0,3.4E1,4.9E1,5.7E1,4.8E1,3E1,3.5E1,7.3E1,1E0,1E0,2.7E1,-5.612592E-2,-1.2891755E-1,-4.1052077E-2,-6.099346E-2,1.2282871E-3,-5.447108E-2,5.966624E-3,1.2488304E-1,-1.37372E-2,-6.884488E-2,-3.950698E-2,-1.4332975E-2,6.340853E-2,-1.302387E-2,3.485985E-2,3.2553043E-2,1.2487003E-1,-7.6910906E-2,-2.211613E-2,1.6048647E-1,-1.4420437E-2,-5.980169E-3,3.028392E-3,4.49508E-2,1.6725432E-2,-9.0263814E-2,1.9117884E-2,1.3596186E-1,1.7921876E-2,5.8852445E-2,-1.2245788E-1,3.214254E-2,8.941955E-2,-2.2651376E-2,5.3154966E-3,8.85183E-2,-1.0287326E-1,6.520151E-2,-4.2216443E-3,-3.9319936E-3,9.593157E-2,5.060804E-3,5.8277033E-2,6.486366E-2,2.1201898E-1,-1.7158425E-1,1.17813416E-1,2.1705251E-2,-7.604634E-2,1.7638806E-1,4.0994268E-2,3.9022185E-2,6.182212E-2,1.3646661E-1,-1.4231148E-1,5.9318945E-2,1.1311031E-1,5.008142E-3,7.978896E-2,1.6374318E-1,1.0537698E-1],"split_indices":[1,0,4,1,3,0,3,4,2,1,4,3,1,0,1,1,1,4,4,2,4,4,1,1,1,2,1,4,1,1,1,2,3,1,2,1,3,3,1,1,1,1,4,1,4,2,2,2,1,1,0,3,1,1,1,1,4,1,1,0,2,4,0,0,0,0,0,0,0,0,0,0,0,0,0,0,0,0,0,0,0,0,0,0,0,0,0,0,0,0,0,0,0,0,0,0,0,0,0,0,0,0,0,0,0,0,0,0,0,0,0,0,0,0,0,0,0,0,0,0,0,0,0],"split_type":[0,0,0,0,0,0,0,0,0,0,0,0,0,0,0,0,0,0,0,0,0,0,0,0,0,0,0,0,0,0,0,0,0,0,0,0,0,0,0,0,0,0,0,0,0,0,0,0,0,0,0,0,0,0,0,0,0,0,0,0,0,0,0,0,0,0,0,0,0,0,0,0,0,0,0,0,0,0,0,0,0,0,0,0,0,0,0,0,0,0,0,0,0,0,0,0,0,0,0,0,0,0,0,0,0,0,0,0,0,0,0,0,0,0,0,0,0,0,0,0,0,0,0],"sum_hessian":[1.1720209E4,7.931563E3,3.7886455E3,3.6496792E3,4.281884E3,2.0983367E3,1.6903088E3,1.4470411E3,2.2026382E3,3.5103677E3,7.7151587E2,1.0524042E3,1.0459325E3,1.3975122E3,2.9279663E2,1.320786E3,1.2625507E2,1.0769823E3,1.1256558E3,5.806495E2,2.9297183E3,6.1104724E2,1.6046861E2,9.9226526E2,6.013896E1,9.789733E2,6.6959206E1,6.308296E2,7.666826E2,1.8146252E2,1.1133411E2,3.0187317E2,1.0189129E3,1.0259079E2,2.3664288E1,7.5813513E2,3.1884723E2,1.0063904E3,1.1926542E2,4.0493777E2,1.7571172E2,2.3272104E3,6.025078E2,4.3100345E2,1.8004382E2,3.285782E1,1.27610794E2,9.5482025E2,3.7445045E1,5.8179573E1,1.9593884E0,4.7729773E2,5.0167557E2,4.919739E1,1.776181E1,4.8354282E2,1.4728677E2,7.035564E2,6.3126205E1,1.11518906E2,6.994363E1,1.0936637E2,1.9677321E0,2.1548924E2,8.638394E1,9.415448E2,7.7368065E1,1.3807919E1,8.878287E1,1.2772159E1,1.089213E1,1.3681592E2,6.213192E2,2.8149048E2,3.735676E1,9.171199E2,8.927051E1,1.0342478E2,1.5840642E1,9.944629E1,3.054915E2,1.3472357E1,1.6223936E2,1.2286302E3,1.0985802E3,1.5589217E2,4.4661563E2,1.9577434E0,4.2904572E2,1.7797705E1,1.6224612E2,1.8636366E1,1.4221454E1,5.5728855E1,7.1881935E1,4.995487E2,4.552715E2,3.0717175E1,6.727869E0,4.4481213E1,1.369836E1,4.3825223E2,3.9045494E1,2.0896935E2,2.9270624E2,3.483701E1,1.4360384E1,7.6407056E0,1.0121104E1,4.4458713E2,3.8955685E1,8.096182E0,1.391906E2,2.936642E2,4.0989215E2,5.924119E1,3.8850148E0,2.9632088E1,8.188682E1,3.44764E1,3.5467224E1,6.053616E1,4.883021E1],"tree_param":{"num_deleted":"0","num_feature":"5","num_nodes":"123","size_leaf_vector":"1"}},{"base_weights":[3.2660025E-4,-8.446402E-2,2.7730035E-2,-1.4838976E-1,-2.2183431E-2,-5.6221792E-3,7.892837E-2,-1.6585496E-1,2.9148735E-2,-6.173618E-2,3.3428006E-2,-3.8175583E-2,2.4228733E-2,3.5588738E-2,1.2643816E-1,-2.8183612E-1,-1.3208662E-1,-3.5748843E-2,1.3015102E-1,-1.0205582E-1,2.102222E-2,2.0703179E-1,2.956931E-2,-7.4247375E-2,-4.570974E-3,4.312378E-3,7.0090055E-2,2.0095915E-2,1.00044005E-1,1.0036463E-1,2.5612068E-1,-3.502481E-1,-1.2250271E-1,-1.4873643E-1,6.648722E-2,-1.0271811E-2,-2.5955054E-1,-4.3423936E-2,2.9906017E-1,-2.1688831E-1,-9.362427E-2,-1.7780153E-1,6.518335E-2,1.8819919E-1,2.4086224E-2,-8.0351576E-2,3.4240758E-1,-6.0302347E-2,2.3830932E-2,3.0882236E-2,-1.6807554E-2,5.8940694E-2,2.0037079E-1,-2.030456E-2,4.961428E-2,1.3861711E-1,7.721922E-2,5.233051E-2,1.4089106E-1,2.0194063E-1,3.7543085E-1,8.505211E-2,-1.1776637E-1,-9.282106E-2,-1.851722E-2,-5.2538756E-2,-3.5248056E-2,4.0807156E-3,5.9422627E-2,2.9770693E-2,-2.5207018E-2,1.335441E-1,-4.1597147E-2,1.7385224E-1,4.5302087E-3,-8.4840894E-2,3.400467E-2,-1.840044E-2,-3.795889E-2,3.612409E-2,-1.8732414E-1,3.8975868E-3,3.6974262E-2,-5.5218015E-2,8.0563724E-2,-6.1492794E-3,1.5152973E-2,-5.9395116E-2,-2.0027999E-2,5.440301E-2,2.4914636E-1,-6.4991876E-3,-4.5544222E-2,4.130187E-3,5.365922E-2,4.8849666E-3,4.6610475E-2,-1.8710751E-2,8.774433E-3,2.7231948E-2,2.0258673E-3,7.477195E-2,-7.71371E-2,2.6262612E-3,-1.686207E-2,8.722286E-3,3.487044E-2,8.043299E-2,3.209271E-2,-1.6002627E-2,3.2661818E-2,1.6684012E-2,-1.417315E-1,3.798497E-2,9.133344E-2,2.9102126E-2,7.1000226E-2,1.6371712E-1,8.978021E-2],"categories":[],"categories_nodes":[],"categories_segments":[],"categories_sizes":[],"default_left":[0,0,0,0,0,0,0,0,0,0,0,0,0,0,0,0,0,0,0,0,0,0,0,0,0,0,0,0,0,0,0,0,0,0,0,0,0,0,0,0,0,0,0,0,0,0,0,0,0,0,0,0,0,0,0,0,0,0,0,0,0,0,0,0,0,0,0,0,0,0,0,0,0,0,0,0,0,0,0,0,0,0,0,0,0,0,0,0,0,0,0,0,0,0,0,0,0,0,0,0,0,0,0,0,0,0,0,0,0,0,0,0,0,0,0,0,0,0,0],"id":8,"left_children":[1,3,5,7,9,11,13,15,17,19,21,23,25,27,29,31,33,35,37,39,41,-1,43,45,47,49,51,53,55,57,59,61,63,65,67,69,-1,71,73,75,77,79,81,83,85,87,89,91,93,95,97,99,101,103,105,107,109,111,113,115,117,-1,-1,-1,-1,-1,-1,-1,-1,-1,-1,-1,-1,-1,-1,-1,-1,-1,-1,-1,-1,-1,-1,-1,-1,-1,-1,-1,-1,-1,-1,-1,-1,-1,-1,-1,-1,-1,-1,-1,-1,-1,-1,-1,-1,-1,-1,-1,-1,-1,-1,-1,-1,-1,-1,-1,-1,-1,-1],"loss_changes":[2.6877993E1,1.1245546E1,1.4928454E1,4.327614E0,3.152505E0,5.145998E0,7.0962887E0,4.9343452E0,8.2866806E-1,2.7961814E0,1.4896739E0,3.0701926E0,2.5230155E0,1.800273E0,5.5356293E0,3.067667E0,3.266613E0,1.6249658E0,1.4610817E0,5.2499866E-1,2.427377E0,0E0,5.1169E-1,3.1345172E0,2.0788796E0,1.0819666E0,1.2030964E0,1.7377546E0,2.9700208E-1,2.6615963E0,1.6998158E0,5.4497356E0,9.721186E-1,7.290859E-1,5.324094E-1,6.2236196E-1,0E0,1.2357581E0,1.9948223E0,8.5410404E-1,5.51579E-1,6.7708755E0,6.828709E-1,6.381309E-1,6.782204E-1,1.9130144E0,1.2509747E0,1.564309E0,1.3550735E0,1.5491931E0,2.256227E0,1.2816825E0,1.5289137E0,6.4267194E-1,1.1485028E0,4.98518E-1,9.2256474E-1,1.1098862E0,1.6962194E0,6.732874E-1,9.341955E-1,0E0,0E0,0E0,0E0,0E0,0E0,0E0,0E0,0E0,0E0,0E0,0E0,0E0,0E0,0E0,0E0,0E0,0E0,0E0,0E0,0E0,0E0,0E0,0E0,0E0,0E0,0E0,0E0,0E0,0E0,0E0,0E0,0E0,0E0,0E0,0E0,0E0,0E0,0E0,0E0,0E0,0E0,0E0,0E0,0E0,0E0,0E0,0E0,0E0,0E0,0E0,0E0,0E0,0E0,0E0,0E0,0E0,0E0],"parents":[2147483647,0,0,1,1,2,2,3,3,4,4,5,5,6,6,7,7,8,8,9,9,10,10,11,11,12,12,13,13,14,14,15,15,16,16,17,17,18,18,19,19,20,20,22,22,23,23,24,24,25,25,26,26,27,27,28,28,29,29,30,30,31,31,32,32,33,33,34,34,35,35,37,37,38,38,39,39,40,40,41,41,42,42,43,43,44,44,45,45,46,46,47,47,48,48,49,49,50,50,51,51,52,52,53,53,54,54,55,55,56,56,57,57,58,58,59,59,60,60],"right_children":[2,4,6,8,10,12,14,16,18,20,22,24,26,28,30,32,34,36,38,40,42,-1,44,46,48,50,52,54,56,58,60,62,64,66,68,70,-1,72,74,76,78,80,82,84,86,88,90,92,94,96,98,100,102,104,106,108,110,112,114,116,118,-1,-1,-1,-1,-1,-1,-1,-1,-1,-1,-1,-1,-1,-1,-1,-1,-1,-1,-1,-1,-1,-1,-1,-1,-1,-1,-1,-1,-1,-1,-1,-1,-1,-1,-1,-1,-1,-1,-1,-1,-1,-1,-1,-1,-1,-1,-1,-1,-1,-1,-1,-1,-1,-1,-1,-1,-1,-1],"split_conditions":[2.6E1,1E0,2E0,1E0,1E0,1E0,3.2E1,2.2E1,5E0,4E0,1.7E1,1E0,3.3E1,1E0,1E0,1E0,3E1,4E0,1E0,2E1,2.1E1,2.0703179E-1,2E1,5.1E1,2.9E1,1E0,4.5E1,1E0,2.8E1,1E0,3.9E1,1.8E1,2E1,1E0,2.5E1,1E0,-2.5955054E-1,7E0,3E1,1E0,2.4E1,2.9E1,2.4E1,1.8E1,2.4E1,2.7E1,1E0,2.8E1,1E0,1E0,2.9E1,3.7E1,7.3E1,2.9E1,2.9E1,5E0,4E0,7.6E1,4.7E1,1E0,4.1E1,8.505211E-2,-1.1776637E-1,-9.282106E-2,-1.851722E-2,-5.2538756E-2,-3.5248056E-2,4.0807156E-3,5.9422627E-2,2.9770693E-2,-2.5207018E-2,1.335441E-1,-4.1597147E-2,1.7385224E-1,4.5302087E-3,-8.4840894E-2,3.400467E-2,-1.840044E-2,-3.795889E-2,3.612409E-2,-1.8732414E-1,3.8975868E-3,3.6974262E-2,-5.5218015E-2,8.0563724E-2,-6.1492794E-3,1.5152973E-2,-5.9395116E-2,-2.0027999E-2,5.440301E-2,2.4914636E-1,-6.4991876E-3,-4.5544222E-2,4.130187E-3,5.365922E-2,4.8849666E-3,4.6610475E-2,-1.8710751E-2,8.774433E-3,2.7231948E-2,2.0258673E-3,7.477195E-2,-7.71371E-2,2.6262612E-3,-1.686207E-2,8.722286E-3,3.487044E-2,8.043299E-2,3.209271E-2,-1.6002627E-2,3.2661818E-2,1.6684012E-2,-1.417315E-1,3.798497E-2,9.133344E-2,2.9102126E-2,7.1000226E-2,1.6371712E-1,8.978021E-2],"split_indices":[1,0,4,3,2,0,1,1,4,4,1,2,1,3,3,2,4,4,2,1,1,0,1,1,1,2,1,0,1,0,1,1,1,2,1,2,0,4,4,3,1,4,1,1,1,1,4,1,4,3,1,1,1,1,4,4,4,1,1,0,1,0,0,0,0,0,0,0,0,0,0,0,0,0,0,0,0,0,0,0,0,0,0,0,0,0,0,0,0,0,0,0,0,0,0,0,0,0,0,0,0,0,0,0,0,0,0,0,0,0,0,0,0,0,0,0,0,0,0],"split_type":[0,0,0,0,0,0,0,0,0,0,0,0,0,0,0,0,0,0,0,0,0,0,0,0,0,0,0,0,0,0,0,0,0,0,0,0,0,0,0,0,0,0,0,0,0,0,0,0,0,0,0,0,0,0,0,0,0,0,0,0,0,0,0,0,0,0,0,0,0,0,0,0,0,0,0,0,0,0,0,0,0,0,0,0,0,0,0,0,0,0,0,0,0,0,0,0,0,0,0,0,0,0,0,0,0,0,0,0,0,0,0,0,0,0,0,0,0,0,0],"sum_hessian":[1.1565611E4,2.8243958E3,8.741216E3,1.3931072E3,1.4312887E3,5.293653E3,3.447563E3,1.2683955E3,1.2471167E2,8.363429E2,5.9494574E2,2.532069E3,2.761584E3,1.8038209E3,1.6437421E3,2.8436526E2,9.840302E2,7.631963E1,4.8392033E1,5.6220514E2,2.741378E2,2.4366076E0,5.925091E2,1.2206221E3,1.311447E3,1.9261864E3,8.353975E2,1.4553232E3,3.4849768E2,1.370057E3,2.73685E2,1.9810706E2,8.6258194E1,9.081367E2,7.589354E1,7.502742E1,1.2922103E0,2.423278E1,2.4159252E1,3.6765E1,5.254401E2,4.9273E1,2.2486479E2,1.8682627E1,5.738265E2,1.2037931E3,1.6829002E1,4.4234213E2,8.691049E2,8.528275E2,1.0733589E3,7.7087854E2,6.4519E1,6.145408E2,8.407825E2,1.2766876E2,2.208289E2,6.2800397E2,7.4205304E2,1.9006635E2,8.361865E1,1.2040328E1,1.8606673E2,2.016328E1,6.609492E1,4.897828E2,4.183539E2,5.492339E1,2.0970148E1,3.005531E1,4.4972115E1,3.3536105E0,2.0879171E1,1.1631152E1,1.2528101E1,3.0767506E1,5.997494E0,2.6664743E2,2.5879272E2,2.998295E1,1.9290049E1,1.1906561E2,1.0579918E2,3.0873914E0,1.5595235E1,2.1361877E2,3.6020773E2,1.2327846E2,1.0805146E3,1.36846695E1,3.144333E0,3.1189114E2,1.30451E2,8.171502E2,5.1954742E1,7.643228E2,8.8504654E1,5.3939545E2,5.3396344E2,4.7835925E2,2.9251932E2,5.8703556E1,5.815439E0,3.4005884E2,2.744819E2,6.4374396E2,1.9703851E2,2.3602385E1,1.0406638E2,4.2957355E1,1.7787155E2,6.2498816E2,3.0157921E0,6.841192E2,5.7933807E1,4.820357E1,1.4186278E2,2.39358E1,5.968285E1],"tree_param":{"num_deleted":"0","num_feature":"5","num_nodes":"119","size_leaf_vector":"1"}},{"base_weights":[2.583655E-4,-2.3643168E-2,5.065829E-2,-6.040132E-2,6.8345107E-3,3.5550456E-2,1.6306593E-1,-1.3930008E-1,-3.9577786E-2,-2.9826153E-3,6.666902E-2,1.8187433E-2,1.2243835E-1,1.1986653E-1,2.5250617E-1,-1.8790041E-1,-1.7114883E-2,-6.0168147E-2,-3.2056072E-3,-4.616867E-2,5.071582E-3,1.9630603E-1,5.9029356E-2,2.0557709E-2,-3.612032E-1,1.090918E-1,3.686384E-1,5.7237502E-2,1.634542E-1,2.4239168E-1,2.1914707E-1,-2.4263586E-1,-1.03692524E-1,2.5745153E-1,-3.2825947E-2,-9.003199E-2,-3.5176784E-2,-3.0744903E-2,2.9303212E-2,-6.263716E-2,3.9735287E-2,9.946044E-3,-8.906476E-2,-4.2871106E-1,7.3810294E-2,1.8703243E-2,2.976569E-1,-4.942884E-1,9.4766915E-2,2.1494709E-1,8.7446E-2,4.8485348E-1,-3.0217525E-1,2.1039458E-1,-1.0847218E-2,5.441719E-1,1.4301771E-1,2.560936E-1,-2.3236094E-1,-8.050385E-2,5.111253E-2,-2.0150717E-2,-9.92525E-2,-1.1254985E-2,1.6373755E-1,-4.956889E-2,2.9067413E-3,-4.1486554E-2,-2.4989342E-2,-1.4374784E-2,2.8174998E-2,2.8622104E-2,-1.4011627E-2,-3.7582407E-3,2.4923438E-2,1.1970998E-2,-2.0615727E-2,-6.1175926E-3,7.8972355E-2,1.8435677E-3,3.8733117E-2,-3.5370654E-1,-2.2058686E-2,4.5720004E-2,-1.7968144E-1,1.8444665E-1,2.0779977E-2,-1.8428087E-3,1.3438681E-2,-9.7200416E-2,-2.5638428E-1,-1.6708149E-1,2.305498E-1,5.5573545E-2,2.7693573E-1,-1.3951333E-1,2.8482113E-2,1.961651E-1,1.06190726E-1,1.8135807E-2,-1.9279422E-1,5.329893E-2,9.0477906E-2,-3.7092343E-2,1.2189027E-2,2.9939914E-3,1.9739366E-1,6.0826186E-2,1.4762835E-2,7.234387E-2,2.4628976E-1],"categories":[],"categories_nodes":[],"categories_segments":[],"categories_sizes":[],"default_left":[0,0,0,0,0,0,0,0,0,0,0,0,0,0,0,0,0,0,0,0,0,0,0,0,0,0,0,0,0,0,0,0,0,0,0,0,0,0,0,0,0,0,0,0,0,0,0,0,0,0,0,0,0,0,0,0,0,0,0,0,0,0,0,0,0,0,0,0,0,0,0,0,0,0,0,0,0,0,0,0,0,0,0,0,0,0,0,0,0,0,0,0,0,0,0,0,0,0,0,0,0,0,0,0,0,0,0,0,0,0,0],"id":9,"left_children":[1,3,5,7,9,11,13,15,17,19,21,23,25,27,29,31,33,35,37,39,41,-1,43,45,47,49,51,53,55,57,-1,59,61,63,65,67,69,71,73,75,77,79,81,83,85,87,-1,89,91,93,95,97,99,101,103,105,107,109,-1,-1,-1,-1,-1,-1,-1,-1,-1,-1,-1,-1,-1,-1,-1,-1,-1,-1,-1,-1,-1,-1,-1,-1,-1,-1,-1,-1,-1,-1,-1,-1,-1,-1,-1,-1,-1,-1,-1,-1,-1,-1,-1,-1,-1,-1,-1,-1,-1,-1,-1,-1,-1],"loss_changes":[1.380126E1,8.706672E0,6.2529764E0,5.782298E0,2.4963844E0,4.900976E0,1.6557579E0,4.3626986E0,2.0882301E0,1.2703427E0,2.650698E0,2.4443834E0,1.7378912E0,7.9909325E-1,5.0565815E-1,2.3987904E0,9.1572064E-1,1.3257165E0,9.0427715E-1,8.146229E-1,1.4134835E0,0E0,4.3024807E0,4.8357925E0,1.0711343E0,1.1605997E0,2.2830381E0,1.2856048E0,1.2766261E0,2.1461325E0,0E0,3.4222298E0,1.7110295E0,9.9827397E-1,1.1264453E0,2.5188446E-1,1.601332E0,1.1053491E0,1.0431734E0,3.0340338E-1,1.254648E0,1.3252754E0,2.481394E0,1.8294911E0,1.3729403E0,1.7441516E0,0E0,5.3468084E-1,2.4708848E0,1.6526189E0,1.8205564E0,2.938218E-1,6.145526E-1,5.9618115E-2,5.0522083E-1,5.10916E-1,9.234402E-1,9.7295475E-1,0E0,0E0,0E0,0E0,0E0,0E0,0E0,0E0,0E0,0E0,0E0,0E0,0E0,0E0,0E0,0E0,0E0,0E0,0E0,0E0,0E0,0E0,0E0,0E0,0E0,0E0,0E0,0E0,0E0,0E0,0E0,0E0,0E0,0E0,0E0,0E0,0E0,0E0,0E0,0E0,0E0,0E0,0E0,0E0,0E0,0E0,0E0,0E0,0E0,0E0,0E0,0E0,0E0],"parents":[2147483647,0,0,1,1,2,2,3,3,4,4,5,5,6,6,7,7,8,8,9,9,10,10,11,11,12,12,13,13,14,14,15,15,16,16,17,17,18,18,19,19,20,20,22,22,23,23,24,24,25,25,26,26,27,27,28,28,29,29,31,31,32,32,33,33,34,34,35,35,36,36,37,37,38,38,39,39,40,40,41,41,42,42,43,43,44,44,45,45,47,47,48,48,49,49,50,50,51,51,52,52,53,53,54,54,55,55,56,56,57,57],"right_children":[2,4,6,8,10,12,14,16,18,20,22,24,26,28,30,32,34,36,38,40,42,-1,44,46,48,50,52,54,56,58,-1,60,62,64,66,68,70,72,74,76,78,80,82,84,86,88,-1,90,92,94,96,98,100,102,104,106,108,110,-1,-1,-1,-1,-1,-1,-1,-1,-1,-1,-1,-1,-1,-1,-1,-1,-1,-1,-1,-1,-1,-1,-1,-1,-1,-1,-1,-1,-1,-1,-1,-1,-1,-1,-1,-1,-1,-1,-1,-1,-1,-1,-1,-1,-1,-1,-1,-1,-1,-1,-1,-1,-1],"split_conditions":[3.2E1,1E0,1E0,2.4E1,1.6E1,1.5E1,3.8E1,3E0,1E0,2.4E1,1.8E1,7.1E1,5.3E1,1E0,7.4E1,1E0,1.8E1,1E0,1E0,1E0,1.1E1,1.9630603E-1,2E1,6.3E1,8.7E1,1.7E1,7.6E1,1E0,2E0,6.7E1,2.1914707E-1,1E0,1E0,1.7E1,2.1E1,2.5E1,1E0,2E0,9E0,1.9E1,6E0,1E1,1.2E1,2.9E1,1.8E1,1E0,2.976569E-1,2E0,1E0,5E1,2E1,5.6E1,1E0,3.6E1,3.3E1,1E0,3.5E1,6E1,-2.3236094E-1,-8.050385E-2,5.111253E-2,-2.0150717E-2,-9.92525E-2,-1.1254985E-2,1.6373755E-1,-4.956889E-2,2.9067413E-3,-4.1486554E-2,-2.4989342E-2,-1.4374784E-2,2.8174998E-2,2.8622104E-2,-1.4011627E-2,-3.7582407E-3,2.4923438E-2,1.1970998E-2,-2.0615727E-2,-6.1175926E-3,7.8972355E-2,1.8435677E-3,3.8733117E-2,-3.5370654E-1,-2.2058686E-2,4.5720004E-2,-1.7968144E-1,1.8444665E-1,2.0779977E-2,-1.8428087E-3,1.3438681E-2,-9.7200416E-2,-2.5638428E-1,-1.6708149E-1,2.305498E-1,5.5573545E-2,2.7693573E-1,-1.3951333E-1,2.8482113E-2,1.961651E-1,1.06190726E-1,1.8135807E-2,-1.9279422E-1,5.329893E-2,9.0477906E-2,-3.7092343E-2,1.2189027E-2,2.9939914E-3,1.9739366E-1,6.0826186E-2,1.4762835E-2,7.234387E-2,2.4628976E-1],"split_indices":[1,0,3,1,4,4,1,4,4,1,1,1,1,4,1,2,1,2,2,3,4,0,1,1,1,4,1,2,4,1,0,3,4,1,1,1,3,4,4,1,4,4,4,4,4,0,0,4,4,1,4,1,2,1,1,0,1,1,0,0,0,0,0,0,0,0,0,0,0,0,0,0,0,0,0,0,0,0,0,0,0,0,0,0,0,0,0,0,0,0,0,0,0,0,0,0,0,0,0,0,0,0,0,0,0,0,0,0,0,0,0],"split_type":[0,0,0,0,0,0,0,0,0,0,0,0,0,0,0,0,0,0,0,0,0,0,0,0,0,0,0,0,0,0,0,0,0,0,0,0,0,0,0,0,0,0,0,0,0,0,0,0,0,0,0,0,0,0,0,0,0,0,0,0,0,0,0,0,0,0,0,0,0,0,0,0,0,0,0,0,0,0,0,0,0,0,0,0,0,0,0,0,0,0,0,0,0,0,0,0,0,0,0,0,0,0,0,0,0,0,0,0,0,0,0],"sum_hessian":[1.1454799E4,7.7703423E3,3.6844565E3,3.5218137E3,4.248529E3,3.2490884E3,4.353683E2,7.342202E2,2.7875935E3,3.6505312E3,5.979973E2,2.7089595E3,5.401288E2,2.951512E2,1.4021707E2,5.2489886E2,2.0932135E2,1.779539E3,1.00805457E3,5.7306476E2,3.0774666E3,6.587644E0,5.9140967E2,2.69308E3,1.5879425E1,5.137229E2,2.6405907E1,1.2206914E2,1.7308209E2,1.3878735E2,1.4297311E0,3.1697955E2,2.079193E2,1.0496578E1,1.9882478E2,8.095506E2,9.6998834E2,5.457695E2,4.6228506E2,4.8110406E2,9.196069E1,2.9268083E3,1.5065834E2,1.657176E1,5.7483795E2,2.688967E3,4.112938E0,1.2226738E1,3.6526873E0,8.569844E1,4.2802444E2,2.2743011E1,3.6628952E0,3.69222E1,8.5146935E1,7.5119634E0,1.6557013E2,1.3768044E2,1.1069139E0,2.987334E2,1.8246153E1,1.8023491E2,2.7684387E1,5.618656E0,4.8779216E0,4.7624035E1,1.5120074E2,9.674555E1,7.1280505E2,8.83438E2,8.655038E1,6.0735832E1,4.8503363E2,2.6045114E2,2.0183392E2,2.6626379E1,4.544777E2,7.3182106E1,1.8778591E1,2.8373606E3,8.944776E1,1.0647864E0,1.4959357E2,3.77831E0,1.2793449E1,3.668957E0,5.7116895E2,1.3777737E3,1.3111935E3,9.592562E0,2.6341765E0,1.9448127E0,1.7078747E0,8.345959E1,2.2388558E0,4.9112477E0,4.2311322E2,8.181349E0,1.4561662E1,2.1719997E0,1.4908956E0,2.9340036E1,7.5821614E0,2.624301E1,5.8903927E1,1.5103425E0,6.001621E0,1.004458E2,6.512432E1,1.3552124E2,2.1591942E0],"tree_param":{"num_deleted":"0","num_feature":"5","num_nodes":"111","size_leaf_vector":"1"}}]},"name":"gbtree"},"learner_model_param":{"base_score":"5.0050396E-1","boost_from_average":"1","num_class":"0","num_feature":"5","num_target":"1"},"objective":{"name":"binary:logistic","reg_loss_param":{"scale_pos_weight":"1"}}},"version":[2,0,3]}